{
  "inputs": 9,
  "hidden": [
    {
      "weights": [
        -0.21605079152201975,
        0.47832761672844826,
        0.47883957459160326,
        0.5374784145771909,
        0.1125879109209958,
        -0.20114626058769333,
        0.13472155233778918,
        0.5488305094102646,
        0.14894587353792443
      ],
      "bias": 0.7616708058261282
    },
    {
      "weights": [
        0.18756520360222909,
        0.5249313211473634,
        0.7920733765406106,
        0.2901649000379622,
        -0.8854029617895662,
        0.2480849913061915,
        -0.6724594590542489,
        0.12223904599257339,
        -0.6745066517111996
      ],
      "bias": -0.3605840633939896
    },
    {
      "weights": [
        0.42914933317918275,
        0.18655991173911868,
        0.8455937622263479,
        0.41962509000522796,
        -0.5875413926393888,
        0.4874610320694766,
        -0.7572938758013025,
        0.13398665984117994,
        0.43321508105293044
      ],
      "bias": 0.3955284570784547
    },
    {
      "weights": [
        1.0008069513490376,
        -0.8012007072492616,
        -0.4676739548271335,
        0.3738777986954298,
        -0.740775517061515,
        0.7291245087319053,
        0.19850683402670483,
        0.327359354952096,
        -0.22848235686634863
      ],
      "bias": -0.6716438138109777
    },
    {
      "weights": [
        0.16324129064008464,
        0.9017238139207782,
        -0.4685100802008893,
        -0.3268503403645636,
        -0.416985561866432,
        -0.5903187845321415,
        0.934043471261613,
        -0.1322529665513853,
        -0.22998258690052187
      ],
      "bias": 0.913633718148069
    },
    {
      "weights": [
        -0.7487919678756011,
        -0.9789877102792474,
        1.0020817656693137,
        0.43377721415124926,
        -0.42322911408828534,
        -0.8691348036743075,
        0.31109839655031474,
        0.5639297650271529,
        -0.2653760056683356
      ],
      "bias": -0.2106606542350023
    },
    {
      "weights": [
        -0.3730929465853393,
        -0.46435116968478085,
        0.2710469331275453,
        -0.4933667874572353,
        0.6378524541081675,
        0.1915363946890913,
        0.2622807655347323,
        -0.7198877797831365,
        0.37779442838540106
      ],
      "bias": -0.35810167958105127
    },
    {
      "weights": [
        0.7124357536101832,
        -0.6037167229203122,
        -0.6002117845949239,
        0.06840009956837347,
        0.5074767131339802,
        0.6550862527232867,
        -0.7778000727015499,
        -0.7516259882783624,
        -0.9612256388144271
      ],
      "bias": -0.9111000856665196
    },
    {
      "weights": [
        -0.11998368473236627,
        0.9061878870297606,
        0.03632413712078301,
        0.2698402559756699,
        0.9391348894074504,
        -0.2614304805007278,
        -0.3996576764869837,
        -0.14998829427369054,
        -0.4564567851972264
      ],
      "bias": -0.3581577260631227
    },
    {
      "weights": [
        -0.07143860898262161,
        -0.2698942166288094,
        0.08478905837804593,
        -0.458856148474014,
        0.2938332073515462,
        -0.8993377147149924,
        0.8853934466199462,
        -0.8024734079494648,
        0.2544820714424352
      ],
      "bias": -0.647276885875133
    },
    {
      "weights": [
        -0.13360246539510795,
        -0.9314138919205348,
        -0.21778506809696518,
        -0.11135970131693218,
        0.01270652129048475,
        -0.01654110933156662,
        0.1784571605009701,
        0.44086072778225505,
        0.12699412719874653
      ],
      "bias": 0.707828198150991
    },
    {
      "weights": [
        0.40943080282389427,
        -0.45066616260475595,
        -0.1627301534008992,
        0.7760383231035439,
        -0.08619673835573073,
        -0.42133848402068563,
        0.23774223413728648,
        -0.7293364143485477,
        -0.7006460317004539
      ],
      "bias": -0.8749833520105811
    },
    {
      "weights": [
        -0.08944593122799327,
        -0.4656540108194762,
        0.8603818695819877,
        0.7593993044780744,
        -0.8928064652896313,
        0.39344180088970016,
        -0.2456836189749278,
        0.22988305330735703,
        0.08465444685655718
      ],
      "bias": 0.5218924820855212
    },
    {
      "weights": [
        -0.6530205660978893,
        -0.21524672269516962,
        0.8410767979346628,
        -0.579934354939765,
        -0.3763147412943614,
        -0.8404788040720784,
        0.6983410768609517,
        0.6544339699846795,
        -0.24581731183115163
      ],
      "bias": -0.40928001328660946
    },
    {
      "weights": [
        -0.8438978049272199,
        0.8983362720275003,
        -0.12279336363310933,
        0.8922708501734069,
        -0.9083027354194806,
        0.5081026020294986,
        -0.18347797560659118,
        0.9005320481603868,
        0.5045300716111056
      ],
      "bias": 0.548937265814023
    },
    {
      "weights": [
        -0.7543072005520173,
        1.0881258801396623,
        -0.015407637047557028,
        0.568264856679766,
        -0.4589470232165656,
        0.9222594092934916,
        0.06573792508544019,
        -0.7084788342376779,
        0.9180045950423825
      ],
      "bias": 0.5411551500976178
    },
    {
      "weights": [
        -0.25843203753897165,
        -0.18612822968797024,
        -0.598182315128378,
        -0.49916907584233794,
        -0.687734931360776,
        0.5643037854097223,
        -0.3751462324473108,
        -0.038828955675691355,
        -0.6791100636465564
      ],
      "bias": -0.1872281574132195
    },
    {
      "weights": [
        -0.805244839160561,
        -0.4233416486051569,
        0.24858226860597288,
        -0.10828024635275094,
        -0.4862086387859482,
        -0.26963335995641624,
        -0.8050265005317713,
        -0.6542802892789322,
        0.6081411518184766
      ],
      "bias": -0.8175557284809679
    },
    {
      "weights": [
        -0.5732103054129177,
        0.38947540146805315,
        0.7733236557174173,
        0.19162781757571867,
        0.3059958680012776,
        -0.004832717361017064,
        0.886669468839767,
        0.5697634316143037,
        -0.13586713777258258
      ],
      "bias": -0.47781264751190927
    },
    {
      "weights": [
        0.25803201966191186,
        -0.723919916572963,
        0.8687837165996158,
        -0.5041979523296841,
        -0.4184002687458652,
        0.08980423902367243,
        1.0113853007503228,
        0.8954499475955571,
        -0.598299264205323
      ],
      "bias": 0.6076955438663552
    },
    {
      "weights": [
        -0.5864240364445648,
        -0.43143220071327465,
        0.5085852098952988,
        -0.02266323601884162,
        0.3285995577714512,
        -0.11773381092311287,
        -0.40012023954415865,
        0.04954839495038395,
        -0.6481324919689957
      ],
      "bias": 0.894111752200802
    },
    {
      "weights": [
        -0.7288314650219954,
        0.9310858331599252,
        0.19628268545134533,
        -1.024679848844631,
        0.7463545439578184,
        0.3838796437214947,
        -0.9946962718312803,
        -0.7152729208106383,
        -0.19045764939169585
      ],
      "bias": 0.39502639170864334
    },
    {
      "weights": [
        -0.9815232900669092,
        0.186745182814294,
        0.7034139849192625,
        -0.3164922933983697,
        -0.8947549991017671,
        0.1200638367481744,
        0.2622446311581483,
        0.6955929607804794,
        -0.019411953435092562
      ],
      "bias": 0.6316753404813752
    },
    {
      "weights": [
        -0.4182989548437586,
        -0.6093837245036975,
        -0.05309646951251412,
        -0.20357668722311864,
        -0.11362061677178459,
        0.9694402077083102,
        0.5270790048138263,
        0.7258742818681975,
        0.47162667855410106
      ],
      "bias": 0.6133033220397539
    },
    {
      "weights": [
        -0.16858102493586286,
        -0.8617172928156217,
        -0.2718466985027018,
        -0.522090780310657,
        -0.054150970310599914,
        -0.4294411951676214,
        0.5804381738775038,
        0.8129636809649151,
        0.2155105559782202
      ],
      "bias": -0.3312594658738872
    },
    {
      "weights": [
        -0.5248166755671679,
        -0.5936279294200475,
        0.3956187863970007,
        -0.006321584838939067,
        0.22068440555288107,
        -0.9219911445165249,
        0.017467797253325958,
        -0.9048744927995417,
        -0.2076842566761165
      ],
      "bias": 0.23172066119833465
    },
    {
      "weights": [
        -0.18027716987366174,
        0.07230565624589373,
        -0.81413780305384,
        0.9164975085459383,
        1.030001418398954,
        0.45407500782015736,
        0.2194549633231719,
        0.11251363811702597,
        -0.5422627569108585
      ],
      "bias": 0.12234756548800625
    },
    {
      "weights": [
        0.11602682061769794,
        0.5820115311717529,
        -0.4088395835992158,
        0.7673884118214017,
        -0.17286533345239055,
        0.16966894675628322,
        0.5610590360725919,
        0.21358196936285834,
        0.20110263260705744
      ],
      "bias": 0.6341601582272812
    },
    {
      "weights": [
        -0.14040660447631695,
        0.8968257907587616,
        -0.17313800197976803,
        0.6524204367508735,
        0.04892975992994193,
        0.7688210959732535,
        0.22572327276371973,
        -0.607636338781306,
        -0.0347801641517573
      ],
      "bias": 0.9661360012779401
    },
    {
      "weights": [
        0.5134760662621449,
        -0.6650563313639373,
        -0.1289075849921495,
        0.8495097577609494,
        -0.7145396427072651,
        -0.4458074287046184,
        0.659139042665918,
        -0.7156626028308438,
        -0.016099435894280832
      ],
      "bias": 0.8278422880367782
    },
    {
      "weights": [
        0.5056532606887261,
        -0.12179573266119709,
        -0.6739745221403378,
        0.03485593387530468,
        -0.7468414759140062,
        -0.41538633356319893,
        0.04277639380146699,
        -0.4473655834578807,
        -0.05441177876024819
      ],
      "bias": 0.9339635543757985
    },
    {
      "weights": [
        0.2957071302716239,
        -0.9240111206205818,
        -0.5253564194016372,
        -0.3838641622680701,
        -0.6643914265267322,
        0.08628396465470535,
        0.8813419065767804,
        -0.34448622389461736,
        0.7663095508684624
      ],
      "bias": 0.6244036274912893
    },
    {
      "weights": [
        0.451945616751225,
        0.7497844998670309,
        0.3354618258305574,
        0.26272758566836746,
        0.7592068578486947,
        0.16109876056563038,
        -0.21757285350139643,
        0.8853179570073102,
        0.5037407020273801
      ],
      "bias": 0.8435799022171988
    },
    {
      "weights": [
        0.023715154539232213,
        0.3112121250641286,
        -0.2939231031274727,
        0.08561366735682288,
        -0.8833969916595018,
        -0.501271765400702,
        -0.5358706628284584,
        -0.1112108635163048,
        0.6666947379268208
      ],
      "bias": -0.17565110294092273
    },
    {
      "weights": [
        -0.1160047992617956,
        -0.03146248856120512,
        -0.22663190170462047,
        0.7832172572909818,
        -0.11075079609187632,
        0.38516708876561034,
        -0.7378109273006954,
        -0.13017782618711285,
        -0.3997470963183651
      ],
      "bias": 0.5722250881180657
    },
    {
      "weights": [
        -0.029777844723028014,
        0.32760644975896125,
        -0.15388744992235026,
        -0.7438248811899006,
        0.378440616362325,
        0.7201695892212918,
        0.6970343755899514,
        0.9352481608060157,
        0.5651818122884315
      ],
      "bias": 0.4494295806596625
    },
    {
      "weights": [
        -0.29597367525746776,
        0.8700373944549868,
        -0.6186046385871076,
        1.0029146849381747,
        0.05602515480933849,
        0.8311427254910579,
        -0.1150549193123006,
        0.6859985041987148,
        0.02610203568778003
      ],
      "bias": 0.1653417675689396
    },
    {
      "weights": [
        -0.2781702487243403,
        -0.31894142047279966,
        0.4803449544705875,
        -0.5572790078661133,
        -0.18182604853638884,
        -0.11873023629476792,
        0.098786040233058,
        -0.2676365640610222,
        -0.02080373775795608
      ],
      "bias": 0.6891127366824191
    },
    {
      "weights": [
        0.4540657835009181,
        0.346862514835129,
        -0.8235195251448619,
        0.7291844520180201,
        0.8795517383495519,
        0.5167374004366765,
        1.011861513286393,
        -0.09690610079235164,
        0.5308745413765853
      ],
      "bias": 0.9526347551013307
    },
    {
      "weights": [
        0.7412610194104188,
        -0.8110962317807723,
        0.281556121796449,
        0.8628975557680681,
        0.0968815610993338,
        -1.0701718088118113,
        -0.4419933357206013,
        -0.6602409167580373,
        -0.5149243305259555
      ],
      "bias": -0.9082545282187876
    },
    {
      "weights": [
        0.829081611504727,
        0.41173348041693775,
        -0.18212548678028262,
        -0.14764570098151497,
        -0.16741286070939282,
        -0.7033817400166049,
        -0.8688379288358209,
        0.23179449565638985,
        0.09058824959086416
      ],
      "bias": 0.3439241723061023
    },
    {
      "weights": [
        -0.9203873703254749,
        0.15833254015084522,
        0.5580126391808743,
        0.6891120082610025,
        0.522158458415265,
        0.2757580541434518,
        0.5669129344714914,
        -0.6180162074768154,
        -0.8840725119894426
      ],
      "bias": 0.7711309435247673
    },
    {
      "weights": [
        -0.8723598428473852,
        0.4217843568226192,
        -0.5460969253207973,
        -0.1255573885404151,
        -0.3610750013715322,
        -0.8991476221710916,
        -0.560952194701556,
        0.22445196810195925,
        -0.2985034820758981
      ],
      "bias": 0.8377663126713358
    },
    {
      "weights": [
        -0.17358067623152093,
        0.5659378937476016,
        0.7474615086298959,
        0.579816813201271,
        -0.27760583462554506,
        -0.59628698220059,
        0.15880460024335413,
        0.805673015123278,
        -0.9151390811600831
      ],
      "bias": 0.20667857595944752
    },
    {
      "weights": [
        -0.684269202868376,
        -0.6077011746889159,
        0.522238644385076,
        -0.6611651784000584,
        -0.056704295791787415,
        -0.9226144518461504,
        -0.10187661602187265,
        -0.9015508961113124,
        0.7225849058657284
      ],
      "bias": 0.5919735339429589
    },
    {
      "weights": [
        0.08726405804646563,
        -0.10301801783561862,
        -0.4187437539156049,
        0.6868709276007703,
        -0.3088304989699458,
        -0.24718034858636886,
        -0.8406002418407028,
        -0.5956791583925194,
        -0.5563981404636144
      ],
      "bias": 0.7119066917682285
    },
    {
      "weights": [
        -0.32473908069931007,
        0.7361426691528686,
        0.6716749727324386,
        0.1295923317697887,
        0.37536982157384036,
        0.6967601069165639,
        -0.5957191024187278,
        0.8159554936460713,
        0.42172563954494646
      ],
      "bias": -0.2612763369225887
    },
    {
      "weights": [
        -0.8392375468430229,
        0.2177192563433758,
        0.5246125141100871,
        -0.9482489654520246,
        0.9538703505421037,
        -0.576119571114369,
        0.23696854791031965,
        -0.17733798463964034,
        0.44269350524931755
      ],
      "bias": -0.2144013454648074
    },
    {
      "weights": [
        0.27436210022077534,
        -0.1348498113909545,
        -0.3678900365752089,
        0.8157008414335989,
        -0.7716874792242855,
        0.2327084889328942,
        -0.49857348174765115,
        0.35840977128173385,
        -0.12256727502985906
      ],
      "bias": -0.17304162065880663
    },
    {
      "weights": [
        0.09014706606121793,
        -0.36679183765498974,
        -0.7648909183011594,
        -0.2228166022059873,
        0.27943423269969314,
        0.10035413288657573,
        -0.7248994012093132,
        -0.8910804328758745,
        0.1475839086853586
      ],
      "bias": -0.34217594436285576
    },
    {
      "weights": [
        -0.0975281443296827,
        -0.32179250353887834,
        0.5141055596414955,
        -0.8806274397184648,
        0.563280513867286,
        0.8790637256752958,
        0.5650481935102658,
        0.20997011584404723,
        0.25059630240369424
      ],
      "bias": 0.8415824124084691
    },
    {
      "weights": [
        0.6798825095201013,
        -0.5636904853328119,
        -0.034612883809477454,
        -0.8919707433039804,
        -0.225555711217013,
        0.9004494395148017,
        0.04948842826581609,
        0.8199843252408576,
        0.16876622199723446
      ],
      "bias": -0.09129572186997915
    },
    {
      "weights": [
        0.5817906341113865,
        -0.9480653048115512,
        -0.48427562317144685,
        0.6667059833634684,
        0.5289959216226641,
        0.5381292637309129,
        -0.35294444237146994,
        0.26327728151553675,
        0.2516636193558501
      ],
      "bias": -0.5480930810106963
    },
    {
      "weights": [
        -0.8492592370112324,
        0.4328130779560409,
        0.21051724767970423,
        -0.14799436431887747,
        -0.45838367646680145,
        0.5842551782727117,
        0.5923173609546676,
        0.32104584260221936,
        -0.5452799952118785
      ],
      "bias": 0.8568317275317772
    },
    {
      "weights": [
        -0.6756265048095031,
        -0.4258154922667869,
        0.9958536571094224,
        0.8121173829189411,
        -0.1432218276768849,
        -0.6383236672634209,
        0.5899255552084642,
        0.5102007212657906,
        0.11252735568804664
      ],
      "bias": -0.7966056786935566
    },
    {
      "weights": [
        0.9117883205501196,
        -0.12299474500296823,
        0.27610541268199545,
        0.8141881643057896,
        -0.6965895586800382,
        0.8414799992316464,
        -0.17298781021433793,
        0.5865672278463612,
        -0.9669155934643615
      ],
      "bias": -0.3821041917657179
    },
    {
      "weights": [
        0.7392156942947161,
        -0.7543092876259705,
        0.1280266709695353,
        -0.4560396170954604,
        0.8462788630679857,
        0.692452684206377,
        0.7384883694629675,
        -0.8499686128800403,
        -0.9887805263266327
      ],
      "bias": 0.8130296271747756
    },
    {
      "weights": [
        0.3166248777732233,
        -0.02460994188828977,
        -0.5645160156082343,
        0.5189285012122515,
        0.5671856239301446,
        -0.0926980861364792,
        -0.7470986122987116,
        -0.7053137476728361,
        0.46146899389089613
      ],
      "bias": -0.6473760523529672
    },
    {
      "weights": [
        -0.07567223578256593,
        -0.24986551441979443,
        0.8989300065923064,
        0.19784763726888363,
        0.4868722677547755,
        -0.18566681567587295,
        -0.840812094834858,
        -0.7922769224827448,
        -0.8979706999470377
      ],
      "bias": 0.3103490959867487
    },
    {
      "weights": [
        0.10935676750173086,
        0.9995299503654468,
        -0.570328531156347,
        -0.13202226901072509,
        1.032419002670726,
        -0.14794566306305235,
        0.3538654036157971,
        0.6237017218820817,
        0.79485206230093
      ],
      "bias": -0.5100194533318009
    },
    {
      "weights": [
        0.1735565379145215,
        -0.6080960466927693,
        0.4412246892248229,
        -0.2808793855660264,
        0.8189782353965462,
        -0.8412441951214066,
        0.37928806223256095,
        -0.6290362869212565,
        0.44030504261726544
      ],
      "bias": -0.2239881918275386
    },
    {
      "weights": [
        0.14322252724345794,
        0.862245658957199,
        -0.44234716871959634,
        0.4042934546124592,
        0.46271348234676163,
        -0.5202448886567039,
        -0.8885679779908285,
        -0.07684121070752507,
        -0.19275619562184734
      ],
      "bias": -0.7732523867671777
    },
    {
      "weights": [
        -0.00781750859616491,
        0.13829434202849553,
        -0.9744014989074121,
        0.9033325890028968,
        0.9939340907140094,
        0.06635523334461396,
        -0.792913307865418,
        0.8641353575837717,
        0.3183647986048017
      ],
      "bias": -0.4780124042880412
    },
    {
      "weights": [
        0.539291132897509,
        -0.07874395771391625,
        -0.011133192034178497,
        0.054769507017293155,
        0.6735887082097152,
        0.9897051688322992,
        -0.023472592376068024,
        0.5720877921003988,
        -0.5534605621250787
      ],
      "bias": -0.045625128050534064
    },
    {
      "weights": [
        -0.7916291316605438,
        -0.19991402826629023,
        0.8851392470887671,
        -0.13798775401710084,
        0.6023521716060529,
        -0.23905083052110257,
        0.6787231886171011,
        0.44572893671414987,
        -0.36493653447890123
      ],
      "bias": -0.8421165503733327
    },
    {
      "weights": [
        -0.08069408075668474,
        0.360980450731016,
        0.8619517664638005,
        0.06562488671405113,
        0.4687365346877973,
        -0.6678297457366072,
        -0.6546922467349,
        -0.05478975951237784,
        -0.5290473210125493
      ],
      "bias": 0.6525369207928859
    },
    {
      "weights": [
        -0.749429596795031,
        0.5866465914273329,
        -0.21477080926983588,
        0.701095529574527,
        -0.43416834202515264,
        0.43517052682384205,
        0.7546978987416342,
        -0.777755732829405,
        0.2820640918592531
      ],
      "bias": -0.8116331468168071
    },
    {
      "weights": [
        -0.14358134441291423,
        -0.9121856214086259,
        -0.5457458258272976,
        0.6781269030889361,
        -0.809734871402397,
        0.08836378198920036,
        -0.541232492840614,
        0.28808320809983684,
        0.3152059916025146
      ],
      "bias": -0.8538786555475013
    },
    {
      "weights": [
        0.47198970596733353,
        -0.6444431278329599,
        0.7607911956176602,
        0.5385227458913534,
        0.7017778697625738,
        0.5141773101445063,
        -0.0014750553419543028,
        -1.0032618057258587,
        -0.34886347054256456
      ],
      "bias": -0.09938614634968333
    },
    {
      "weights": [
        0.9070936086093169,
        -0.6259788756390625,
        -0.33262987035983144,
        0.34946756885842145,
        -0.8774149667515961,
        -0.03091987695341515,
        0.291808579602889,
        0.028933562581470885,
        -0.7316350771404816
      ],
      "bias": -0.10229256641561639
    },
    {
      "weights": [
        0.49475851225034106,
        0.13521322137670502,
        -0.8207257516130757,
        -0.2643634633467395,
        0.18547108918844982,
        0.7504486805947125,
        0.1266180593962227,
        -0.3664313967482341,
        -0.00841663714255454
      ],
      "bias": -0.9646006509164841
    },
    {
      "weights": [
        -0.6416820021906461,
        0.6885373653370165,
        0.6928383166573019,
        1.032502810318032,
        -0.4171505717562445,
        0.7948075887364746,
        0.26290369065787433,
        -0.6849867786843203,
        0.16408512768409697
      ],
      "bias": -0.7411203432304126
    },
    {
      "weights": [
        -0.8772553469056247,
        -0.4966775503412489,
        0.2965757049130617,
        0.9172304999123547,
        -0.6172411584990479,
        0.8953748087699591,
        -0.04162423863919546,
        0.4615033554361329,
        0.03297989031482838
      ],
      "bias": -0.35125840117893387
    },
    {
      "weights": [
        -0.36368761849703735,
        0.14393526450684865,
        -0.2596781553535491,
        -0.18635647339912695,
        0.3645965797462322,
        -0.0476357943086411,
        0.7851524565670518,
        -0.2465213966875088,
        -0.40781080337495385
      ],
      "bias": 0.5538715299473025
    },
    {
      "weights": [
        0.5041224548222779,
        1.0235173749788042,
        0.402848048860879,
        0.044417371605269394,
        0.4507365886844162,
        -0.13629896127797408,
        0.2922384031161049,
        0.4652951545158105,
        -0.730986246303504
      ],
      "bias": -0.6052559505857114
    },
    {
      "weights": [
        0.15458961754367895,
        -0.1532575217718646,
        -0.040051778413615916,
        0.7114876798911827,
        -0.5639374570751183,
        0.3214387313768385,
        0.4860382341896312,
        0.8223443539848014,
        -0.5478914668957019
      ],
      "bias": -0.45596014869717494
    },
    {
      "weights": [
        -0.8835859583273589,
        -0.2338129918586014,
        0.47532172724438043,
        -0.6560026294186351,
        0.8550000881962472,
        -0.1047999032776134,
        -0.16063926180461646,
        -0.489853173149787,
        -0.6503980857921166
      ],
      "bias": 0.6459809700739916
    },
    {
      "weights": [
        0.416384036225726,
        -0.4411749876440296,
        0.3598639509221531,
        -0.48846593403977917,
        0.8809689035935925,
        0.2354978685022297,
        -0.22996693269074323,
        0.18339345578514568,
        0.7098331472487777
      ],
      "bias": 0.5652178250227486
    },
    {
      "weights": [
        0.28725608015421605,
        0.8960571537093422,
        0.36395533458461476,
        -0.625201700171813,
        -0.057587576670877674,
        0.8450983801632105,
        -0.6349011883165243,
        -0.8489964400114309,
        0.4836944231458279
      ],
      "bias": -0.3557618668340104
    },
    {
      "weights": [
        0.3989695716531776,
        -0.2975340946487537,
        0.17144777428899904,
        -1.0068973427103811,
        -0.010096086058631423,
        -0.791616360625933,
        -0.1824290082238421,
        -0.07633363915009568,
        -0.15450843928079036
      ],
      "bias": 0.3534171938150613
    },
    {
      "weights": [
        -0.0410761169238107,
        -0.348011735677767,
        -0.5431799965340889,
        -0.8303179844887717,
        -0.6940280685958321,
        -0.014396982046827546,
        0.7190001801916058,
        -0.04634891758068244,
        -0.9262377115733197
      ],
      "bias": -0.15116402267544515
    }
  ],
  "outputs": [
    {
      "weights": [
        -0.6044772322681755,
        -0.9229171395919523,
        0.8944206228238949,
        1.0021416073177898,
        -0.815422968659049,
        -0.635861399583964,
        -0.8367625211882229,
        0.28125322881908804,
        -0.8955124616320089,
        -0.3732628498459329,
        0.20275766109645596,
        -0.6691520286172514,
        0.3313966092322795,
        -0.0738327154148054,
        -0.5445258113154214,
        -0.9032122352941423,
        -0.40003334530383916,
        -0.17278618815390953,
        0.4829454013437088,
        0.6967354322664902,
        -0.8408761773886466,
        0.4183977698077741,
        -0.8345544641724422,
        0.07819910128944785,
        -0.35355272006776234,
        -0.08914111449597609,
        -0.6417326017687778,
        0.7052241434442975,
        0.7769636067564074,
        0.7280495144747305,
        0.33027592776629255,
        0.5509990122925434,
        0.6793503989169924,
        0.1923404806936313,
        -0.5376254132873476,
        0.23851083075984303,
        -0.5082269760587196,
        0.555198742379109,
        -0.8221398743279327,
        -0.5130823904826153,
        0.22603594075969974,
        -0.08945899957517886,
        -0.8715833187756015,
        0.757474785947643,
        -0.023863267637368756,
        0.14326360544162253,
        0.6653514771214993,
        -0.2550472938584413,
        0.05008485740887031,
        0.0523462046637737,
        -0.8317748070372837,
        -0.35172577459215343,
        0.8433704150458169,
        -0.6464862329702553,
        -0.4600303811755803,
        1.0352965324259482,
        0.6336617137404083,
        0.07738061871589384,
        0.6760432365466812,
        0.4454779572780676,
        -0.7145744139895274,
        0.5319382850028436,
        0.8112286818146492,
        0.22237288665927582,
        -0.5999462222170313,
        0.3121160864613232,
        -0.5192151132525115,
        0.056427897371277014,
        0.5796156025621567,
        1.0064483826941224,
        0.2648506745688997,
        -0.08105633229565741,
        0.055996599344407344,
        0.5016913838277187,
        0.2017066293711468,
        0.7617101162999802,
        -0.36959665107675665,
        1.0081278806571894,
        0.026755382727990447,
        -0.2917131180628057,
        0.3388919072159916
      ],
      "bias": 0.8069620478421146
    },
    {
      "weights": [
        0.5621871376227263,
        0.5057077286848483,
        -0.5980257355284431,
        -0.08602905762238851,
        0.7806360727551936,
        -0.6514025365908387,
        0.06395618067747016,
        0.18068133559259023,
        -0.029122303237585134,
        -0.40915579754660325,
        -0.3360810781485184,
        0.49324171222417124,
        0.2908726820059895,
        0.10352522030488144,
        -1.1037356391009925,
        -0.20986241516285617,
        -0.0527760059888516,
        -0.7212836902642082,
        -0.42834998425081494,
        0.55130500387895,
        0.04419027450141896,
        -0.4715735340645492,
        0.6326887390210103,
        0.8282546675359044,
        0.36308530920998955,
        -0.4923363106672887,
        0.39419730876337017,
        0.6873368941345194,
        -0.9168360183071709,
        -0.9006904673303923,
        0.6136810108052398,
        0.36261235156892785,
        0.5757131915856226,
        -0.11256721114158227,
        0.6312304834997668,
        0.42000738159698325,
        0.26373341636238123,
        -0.5502957956999783,
        0.32772947569613675,
        0.8434707923083569,
        0.13575602207646065,
        0.4191309096555338,
        0.7142924830231345,
        -0.15631288669804336,
        0.2569532543215525,
        -0.8780751978576569,
        0.7985247100697551,
        0.6757406700625928,
        -0.39141943458281264,
        -0.07777522119325493,
        -0.5961325230943461,
        0.38228376665429853,
        -0.6003048179384203,
        -0.15892494258354087,
        -0.18138197246219337,
        -0.16819716460624118,
        -0.97930123002804,
        0.09679061498880051,
        0.7948554887605273,
        -0.1979644651675713,
        -0.7772453845986662,
        0.5079130676578804,
        -0.22540126247520254,
        -0.7645138249725614,
        0.044046329676242724,
        0.6458536041022969,
        -0.6853074324725137,
        -1.1144480251718654,
        0.17901822834161216,
        -0.8287655682002568,
        -0.24233445985597937,
        -0.31840527884946584,
        -0.41562179763757773,
        -0.4204937148438061,
        -0.46713064106475405,
        0.48037220239404854,
        -0.32918542546729357,
        0.2894156087953075,
        -0.8218080920119909,
        -0.5795663483769125,
        -0.05907754858573495
      ],
      "bias": -0.6084729576756805
    },
    {
      "weights": [
        0.6609654553111955,
        -0.9527323850952133,
        -0.9905964686193452,
        -0.2934225114289143,
        -0.49523136375042,
        0.812650031199581,
        -0.2205305905258886,
        0.4254254418413549,
        0.1616069064267925,
        -0.6137236560503317,
        -0.06884221051502665,
        0.8424824148257877,
        -0.08017291025475848,
        0.5205560356066538,
        -0.6366025704148248,
        0.33245085177946826,
        -0.7558183962879992,
        0.4036678342548878,
        -0.4630696362156215,
        -0.13763929726086374,
        -0.26157114739154874,
        -0.8117756193185913,
        -0.31374328594847645,
        0.8449414852011704,
        -0.7789875119815717,
        -0.40130668043247014,
        0.24667161258843898,
        -0.7777811974415686,
        -0.2303856287373507,
        -0.08055563373548669,
        0.644638187350089,
        -0.6915553080945219,
        0.7276167830794351,
        0.3251813783341649,
        -0.8635819865828456,
        -0.49604994150527415,
        0.7824921920603584,
        -0.9779957972784753,
        -0.4519214365725411,
        -0.9745833998911795,
        -0.12045194628244894,
        0.3348451529881484,
        -0.3086210356082853,
        0.7595403508521027,
        0.735884289065437,
        -0.42025630000989794,
        0.8122659447100511,
        -0.15965933176673935,
        -0.8224256680476585,
        -0.4646438343737026,
        -0.9790917724302308,
        -0.8116131881713217,
        0.7335415370054713,
        0.629371387520518,
        -0.48790128883952305,
        0.35456156331705424,
        -0.24989557624554645,
        -0.038835302129993754,
        -0.8979250474355549,
        -0.13776503145399563,
        -0.36130098878001426,
        -0.4846707191602279,
        -0.6530262544463794,
        -0.5744922087791375,
        0.016230906586813837,
        0.12027777519961932,
        0.5675319396225046,
        -0.6668855212831203,
        0.6140923994911731,
        0.5751940124229036,
        -0.037287557632259244,
        0.13762099003975936,
        -0.659331502738934,
        0.26950949223543047,
        -0.17171272006344482,
        0.3681818053497224,
        0.3386328427191021,
        -0.2836805358702472,
        0.7790771164513959,
        -0.20846637619229713,
        0.7520056650360075
      ],
      "bias": -1.010934152966323
    },
    {
      "weights": [
        -0.6545265028795453,
        0.9823717503122219,
        0.01404572733057692,
        0.9925858940250639,
        1.2823716913448056,
        -0.44931627413634445,
        -0.22047647114213115,
        -0.22078091497663505,
        0.36464425011331547,
        -0.7307837917185257,
        0.4631808728412023,
        0.49807540814441414,
        0.965594571012966,
        0.09517142923171773,
        -0.05470847831335184,
        0.7359141283395553,
        0.2813654316160308,
        -0.9041969516112912,
        -0.6668017708115165,
        1.1152922536821335,
        -0.2793075011427023,
        0.918643822140949,
        -0.32525998509291437,
        0.9034679610584235,
        -0.813248910498856,
        -0.7882545072478242,
        -0.5550193969686208,
        -0.18447445660067657,
        -0.15505162401400896,
        0.06056677140213834,
        -0.017188998588757966,
        -0.4160762378134086,
        -0.7307515516057946,
        -0.0674827280407809,
        -0.5512451779503157,
        -0.47073566086923896,
        -0.3152786965863917,
        -0.5121430230171509,
        -0.5064561214053754,
        -0.3648125016794869,
        -0.3969387335661802,
        -0.2573591304003938,
        -0.4176643360096641,
        0.5532529666553581,
        0.8613472088399317,
        -0.607677973751008,
        -0.4732518071219563,
        -0.6655303191906722,
        0.18282751725119437,
        -0.21479047954870623,
        -0.390336474111551,
        -0.5970933286818502,
        0.3897727820354527,
        0.9376454186030495,
        0.3032788549227015,
        0.48161197903681224,
        0.8905698604715722,
        -0.07184150405405022,
        0.07466341408783153,
        0.380320014986701,
        0.5461349554512005,
        -0.6920229752952499,
        -0.7065246244733385,
        0.6127868595015491,
        -0.6837891625640793,
        -0.6594668587480793,
        -0.6886293067331596,
        0.8150696943662176,
        0.08125744262895011,
        0.9239670001594913,
        0.5932475478737769,
        -0.8956168701662607,
        -0.7230939418004023,
        -0.05185315978508867,
        0.9533358809556458,
        0.1771521641537853,
        0.3715489932674293,
        1.1145659353219322,
        1.1795022279792726,
        0.8485969949364497,
        1.0769835470259883
      ],
      "bias": 0.39206366914083474
    },
    {
      "weights": [
        0.6232833747117028,
        -0.7101247974039908,
        0.260121528831829,
        0.5411431572405113,
        0.3624761807567683,
        0.10763643032402478,
        0.5154390372947774,
        0.5968823326349124,
        0.34921176909174056,
        0.3453026089556016,
        0.15791115129211528,
        -0.7450381660459029,
        -0.5699296581316375,
        -0.7208193190422919,
        0.24347757750713786,
        -0.8277083277859242,
        0.13889197198174838,
        0.9776414840654524,
        0.9371583693457122,
        -0.96181959714738,
        -0.25953123073666046,
        -0.23034493619247712,
        -0.7452932787560417,
        0.3134544015135197,
        -0.7847429029087325,
        -0.48063757303379273,
        1.0245993449503035,
        0.6389545237197409,
        -0.7240905928128806,
        -0.1750556601277384,
        -0.9455232098676315,
        0.9702162743196979,
        0.9379160327742292,
        0.4644909030527742,
        0.26150270928609326,
        0.023547539731962525,
        -0.10441457832745911,
        -0.45547501092122306,
        -0.5650087763819921,
        0.6125526550053261,
        0.7679097138494997,
        -0.14967987874434513,
        0.6142028581590869,
        -0.2260867597045566,
        -0.8102652816934642,
        -0.8397852653827206,
        -0.3317982188100737,
        0.8056793901981734,
        -0.46328543654380083,
        0.2836882817218224,
        -0.31859536895817786,
        -0.03660275236106389,
        -0.17001032513433845,
        -0.47527224474073276,
        -0.33722912187643134,
        -0.37986163008423496,
        0.9956512347111492,
        -0.591518946116367,
        0.6267051261334433,
        -0.7858682775567567,
        0.6461134609094563,
        0.38771469096654587,
        0.1164812808952266,
        -0.6956097351679436,
        -0.047907902906011844,
        0.8946925092481364,
        -0.7794194568360066,
        -0.3144609612527325,
        0.7559431873832121,
        -0.815917580799421,
        0.9894399406747139,
        -0.8359735974486702,
        -0.9781612287574868,
        0.26928839203062954,
        -0.9742495053738176,
        0.9915217692786797,
        0.7323140317451657,
        0.22289316692702488,
        0.9027430425939391,
        -0.5145546571477974,
        0.7468334595592322
      ],
      "bias": 0.33152399318680015
    },
    {
      "weights": [
        0.6795080644506578,
        0.7828499214930411,
        0.273066958198432,
        0.14427012994063307,
        -0.544051934643874,
        0.744687250678173,
        -0.3997818511180191,
        0.7882045223471399,
        0.6239056865261348,
        -0.8209835767788829,
        0.2448121782039057,
        0.6504948697759998,
        -0.067778741149713,
        -0.3244240377131592,
        -1.0102121167232898,
        -0.31344036597309055,
        0.6388279445696659,
        0.3894665636506231,
        -0.2800591252932353,
        0.5545524068780658,
        0.5795415517608788,
        -0.5113540870688881,
        0.6355686127783149,
        0.5869891012431095,
        0.6486911598531349,
        -0.09107843666553098,
        -1.0043398643951946,
        0.3108116971480201,
        0.3875474556167186,
        0.29100636913841255,
        -0.23916475410151322,
        0.5800270210072663,
        0.9275319602901391,
        -0.5343588589608804,
        0.9475679380315085,
        -0.6786939419651309,
        0.7000271840386908,
        0.22445658413726932,
        0.957620135453133,
        0.7778234147917321,
        0.5311664875976211,
        -0.21728610626398479,
        -0.09896250555408954,
        -0.5248730767115581,
        -0.8460449838787683,
        0.08251732059680328,
        -0.45505498100156844,
        -0.07718797343518098,
        0.6239408258878809,
        0.7545144103999313,
        0.6171938576953971,
        -0.017852197927358305,
        0.7900059498342881,
        -0.713185593874307,
        -0.6070863712023753,
        -0.7399256259131712,
        0.2185710382619409,
        0.13388661432586765,
        0.9037733421671653,
        -0.11165673168606327,
        0.2613682837722975,
        0.7676764357062376,
        -0.20939694894129954,
        0.7866223016199233,
        -0.30139363427141036,
        0.22100576055461782,
        0.3173486773407646,
        0.3484416387316293,
        0.9492185152645531,
        0.13997399386093448,
        -0.9581562710779495,
        0.6105012870719538,
        -0.15308461186086375,
        0.8822851575246982,
        -0.04583829220716234,
        0.08485787976631373,
        -0.8667015953803201,
        -0.6075203967648394,
        0.6406797133869783,
        0.26719781287032474,
        -1.0070446375887363
      ],
      "bias": 0.08831514312638912
    },
    {
      "weights": [
        -0.7469673469282769,
        0.027858002290642756,
        -0.6550729164589082,
        0.04857869069041674,
        -0.8673711837960625,
        -0.20865141073989213,
        0.2756570790281294,
        -0.6327790771026668,
        0.5726392883649108,
        -0.27454977857600643,
        1.0216776533297955,
        -0.8756627478030221,
        -0.6017977278725136,
        1.0105745941520337,
        0.44033226716283835,
        -0.5078038377959002,
        0.3474281368936731,
        -0.41070556662458507,
        -0.08502585026403625,
        -0.7587106670957438,
        0.11806826434389071,
        1.038587422671607,
        0.46054517550826096,
        0.21536575843251024,
        -0.24452620166470582,
        -0.45459646033966644,
        0.23402240565924626,
        -0.1846055093055038,
        0.2185644500805472,
        1.014279603893294,
        0.1593052747819544,
        -0.06068922247454348,
        0.4371931862965649,
        0.9282336676973559,
        0.2637487968137661,
        0.4977855720743793,
        -0.4826724452655144,
        0.5622075767885999,
        0.7806220574873929,
        0.6394673060672844,
        -0.029320759792787747,
        0.8539092884079108,
        -0.7481797918134369,
        0.7282699191073769,
        0.9826972547750363,
        0.23224896524561645,
        -0.38043450269993934,
        -0.4359921220135457,
        1.0238808102773214,
        -0.6818795733164421,
        -0.4037509535169887,
        1.0529098556876837,
        -0.5086483605098786,
        0.3856416232297512,
        0.6049922597980663,
        0.036794289028840785,
        -0.5484782508507633,
        0.5471308270976749,
        0.0831019691135042,
        -0.8966774516531558,
        -0.6312392801012572,
        0.1792368282782003,
        -0.3029521101452916,
        0.4391845339520084,
        -0.6791346235910024,
        0.4377591588979409,
        -0.9649762192198144,
        -0.7803805745300518,
        0.2939673071374053,
        0.5535206724021455,
        -0.8012124267428827,
        -0.17260939479598472,
        -0.7781389936705735,
        -0.7464274093291989,
        -0.5019570785491902,
        0.9280499115051333,
        -0.012722127595222727,
        0.5130479067792422,
        1.078990608747288,
        -0.06459919463715674,
        0.757870824602002
      ],
      "bias": 0.534135720318977
    },
    {
      "weights": [
        -0.5637506886840676,
        0.7951876664487141,
        -0.9912850663350533,
        0.17158346058547322,
        0.6644987433838806,
        0.19549267011346422,
        0.10181416164647714,
        -1.1822846909002815,
        0.046259060160084936,
        0.8348868175983803,
        -0.1402834690404249,
        0.3874809635692793,
        -0.7109247542020403,
        0.5031845665613152,
        0.5980504649387364,
        0.6637525634441357,
        0.4500035769376356,
        -0.502683630638346,
        -0.35547667487469886,
        0.37866198000181167,
        -0.5416514589316747,
        0.21455379466250707,
        -0.6025316112501508,
        -0.6032001450606683,
        0.44957933509556014,
        -0.6602147616060909,
        0.5105512659632195,
        0.8278343513602624,
        0.4700382267479842,
        0.21667295007362147,
        -0.8356311911477714,
        0.7229811268860916,
        0.44951872005131965,
        0.6748897951807543,
        -0.4492210939540988,
        -0.21484551250301526,
        0.6085417548838353,
        0.3741698120710348,
        -0.7278021514848176,
        0.6243623460734844,
        0.6944498904052004,
        0.5087483676498167,
        -0.1441106356525972,
        0.14314131807322597,
        -0.8847984348777672,
        -0.7597494844186119,
        -0.5495314749598578,
        -0.6354333630978014,
        -1.0362478882630595,
        0.0006173708325579366,
        0.70983213633097,
        0.347166618418886,
        0.43199634637014933,
        0.1324700200704059,
        0.602818169604276,
        -0.0012335656732127046,
        -1.0607077583483657,
        0.34371175573605833,
        -1.154723381867688,
        -0.07284410062094507,
        -1.0285879256799755,
        0.7440930276343068,
        -0.30862710951957073,
        0.6082777924251789,
        0.42741948716643746,
        0.23444020765923973,
        0.5320521463661766,
        0.3472963128849656,
        -1.041194367851746,
        0.11337993619620801,
        0.24804592135734968,
        -0.70934119848403,
        -1.0181980747093344,
        0.6077949701576587,
        0.9153112556388258,
        0.3476277670128961,
        0.3313107967738709,
        -0.4216019592649569,
        0.21840773945004846,
        -0.008862984774627717,
        -0.7031857300512414
      ],
      "bias": -1.062331981972545
    },
    {
      "weights": [
        -0.7399486546988986,
        -0.6285115243982374,
        0.4735926424066439,
        -0.8756991628506803,
        -0.0584406178757847,
        0.13448990289840576,
        0.29486808173630474,
        -0.15514460813413006,
        -0.6922417657631743,
        0.6717172640497352,
        0.3360485863481152,
        -0.45599839598197695,
        -0.9366206022385425,
        0.9377496414551584,
        -0.9647570437792272,
        -0.830750303386006,
        -0.8267440036732244,
        0.19995044570308054,
        -0.5172407542646021,
        0.11471524420093067,
        0.4748274263034801,
        1.0420651740324716,
        -0.6309164668696873,
        -0.973257508659951,
        -0.4475955636915341,
        0.7401823679098875,
        0.793023941484823,
        0.8012034456907583,
        0.5299115745131244,
        -0.5338608993030907,
        0.7069746224938577,
        -0.24300678377293916,
        -0.6815002421101973,
        -0.9125263535331146,
        -0.09010366619288626,
        -0.33205341770970276,
        -0.6489083268047784,
        0.8404593440101946,
        0.8620044337888666,
        1.0543288933210841,
        -0.1879659952363589,
        0.62514871522392,
        0.2935359441922514,
        0.2717232288639086,
        0.2143712396682502,
        -0.1190908210795251,
        0.6583733277484071,
        0.5538018120705485,
        -1.0996631183518397,
        -0.32275576016492574,
        0.20606510238016085,
        0.19306363412015284,
        0.04557651994546513,
        -0.1452393648253356,
        0.09249180348944637,
        -0.7077680944607703,
        -0.1412667043865674,
        0.4251973983702102,
        -0.31108469560601015,
        0.9200299295561003,
        0.7074435562528363,
        -0.09671314643746456,
        0.44083679414316634,
        -0.6591377129695468,
        0.983748193957151,
        -0.719392216427384,
        -0.30221767328056953,
        0.12879935898907224,
        -0.4639688649032764,
        -0.5446710559475874,
        0.8549545311732193,
        -0.6734748027095063,
        -1.1720594570944292,
        -0.013818884442690405,
        0.5496899423317892,
        -0.16876985654350873,
        -0.13037647755328033,
        -0.0818936846706395,
        -0.1368431252780405,
        0.6359718851996032,
        0.6604741194216527
      ],
      "bias": 0.8428287949517299
    }
  ]
}