{"inputs": 9, "hidden": [{"weights": [-0.20431198470750586, -0.5945146553983927, -0.6631662765092516, -0.4922520232906372, -0.9318174258824039, -0.36390793999694754, -0.7587807011494948, 0.34894274814656406, -0.4162660669904268], "bias": 0.04763273898774227}, {"weights": [0.1058143492508473, 0.8748179447821519, 0.31326855009517746, -0.25294682422356163, -0.9535466586071614, -0.5199344311142386, -0.04847904909239175, -0.5755504749407419, -0.38507817304838077], "bias": 0.6555365986766901}, {"weights": [-0.4201607148781016, -0.39826324144218356, 0.989806732603241, 0.32979136668332154, -0.9736880414641791, -0.30762443069195017, 0.7227274756251297, 0.5128233500912803, -0.9508836524157173], "bias": -0.40608707808263084}, {"weights": [0.27748384549360156, 0.006763952042004219, -0.961653761448928, -0.021471184895950884, 0.11342943612401273, 0.7742003844927062, -0.5109296965340749, 0.7458429340397373, 0.7677239306241301], "bias": -0.5645888405738538}, {"weights": [0.2987240068613495, 0.623289629509688, -0.19110038159018772, 0.8423230690357594, 0.8880636016089035, -0.6672477630033794, 0.7994568725950179, 0.8951380214339842, 0.87903160193342], "bias": 0.7005935316876554}, {"weights": [0.09190218726970201, 0.7141890755420115, -0.03649733777649716, -0.24422189379810122, -0.7948002606102685, 0.8908260277786282, 0.6086638393762063, -0.30730623475437374, 0.9691387104473546], "bias": 0.28181241638555793}, {"weights": [-0.06815391605719816, 0.031718182765043, 0.9979816545811758, -0.3365097033308085, 0.4187062850080563, -0.8331156249318091, 0.20243737021919245, -0.8634210656133369, 0.8369936863182952], "bias": -0.28306609342927985}, {"weights": [-0.3137803758971452, 0.018863642841503738, 0.06821770695895284, 0.13980611545592592, -0.09667936507386432, 0.6833233684607228, -0.8682761064989143, -0.2760593822575451, 0.6406070203418771], "bias": -0.18620778942485403}, {"weights": [-0.8431892558431905, 0.6554842590970728, -0.2384383793991357, -0.3895436159120269, -0.7083629220882884, -0.030838436030647048, 0.9361895471962355, -0.007374721983218354, -0.8831926188094236], "bias": 0.29792957139737686}], "outputs": [{"weights": [0.6743183382924078, -0.6770499116750681, -0.6856619402190104, 0.48793825486437015, -0.7310033548700163, -0.826947181383374, 0.11171532670001506, -0.014667495051541557, 0.03835861141129761], "bias": -0.3124558611113111}, {"weights": [-0.7559895166160587, -0.24558602067315272, -0.2794922679894695, -0.5719627603982335, -0.25643355757787284, 0.4543436167971199, 0.5596912226331391, -0.9104920154945747, -0.005485905364583683], "bias": -0.9213996763771948}, {"weights": [-0.6608022286638636, -0.2061667703341278, 0.054585181749544714, 0.8439375350131029, 0.9397957828206667, 0.3424171174617629, 0.8024224663374441, -0.16754926713435686, 0.01425848797605663], "bias": -0.3581713233023055}, {"weights": [0.09652987153360597, 0.32659668264802144, -0.5310030318997837, -0.06155287989878658, -0.4191977037255729, -0.1102914481061422, 0.2379645621706184, 0.03692566091884415, -0.9124775489756601], "bias": -0.14445237814271988}, {"weights": [0.5184675147363472, -0.48595813161027324, 0.3693220195801369, 0.26195278351048007, 0.26689984626548974, -0.04208707087257996, 0.6569641961818398, 0.5829326907903524, -0.40966261251069336], "bias": -0.41908092123985896}, {"weights": [0.43288444416054306, -0.9326341986557272, 0.5165256750273772, 0.9079700478748716, -0.9290519110776005, -0.05199567678447359, 0.24511126640625047, -0.3845848316425766, -0.4249107210919709], "bias": -0.26758049377895565}, {"weights": [0.6320959370747461, -0.9073723860851293, 0.2896095003781625, -0.2584781472445899, -0.012383621817637776, -0.24841954432967947, -0.524646163329598, 0.6115558273664029, -0.5284727339260715], "bias": -0.4405213971779864}, {"weights": [-0.668093553495486, 0.6825976743578355, 0.19961011697853084, -0.25798618253707395, -0.16764381982422163, -0.947173436025553, -0.7962866130882852, -0.8401146588994214, -0.020493233343282975], "bias": -0.41296608986968375}, {"weights": [-0.5767357601384742, 0.9168385667099163, -0.2489867049847648, -0.9476028689002696, -0.22645107685059274, 0.8112825890147375, 0.3399147476723977, -0.8033007291525265, 0.17118335727534653], "bias": 0.20785533377314017}]}