{"inputs": 9, "hidden": [{"weights": [-1.1671489299816182, 0.0649254599118326, 0.49621953868430485, 0.5611384141716802, 0.35463205272286247, 0.7051556953789969, 0.6724815263461059, 0.7072459260515676, 0.5420810705524102], "bias": -2.8517007182134755}, {"weights": [-1.1671489299816182, 0.0649254599118326, 0.49621953868430485, 0.5611384141716802, 0.35463205272286247, 0.7051556953789969, 0.6724815263461059, 0.7072459260515676, 0.5420810705524102], "bias": -2.8517007182134755}, {"weights": [-1.1671489299816182, 0.0649254599118326, 0.49621953868430485, 0.5611384141716802, 0.35463205272286247, 0.7051556953789969, 0.6724815263461059, 0.7072459260515676, 0.5420810705524102], "bias": -2.8517007182134755}, {"weights": [-1.1671489299816182, 0.0649254599118326, 0.49621953868430485, 0.5611384141716802, 0.35463205272286247, 0.7051556953789969, 0.6724815263461059, 0.7072459260515676, 0.5420810705524102], "bias": -2.8517007182134755}, {"weights": [-1.1671489299816182, 0.0649254599118326, 0.49621953868430485, 0.5611384141716802, 0.35463205272286247, 0.7051556953789969, 0.6724815263461059, 0.7072459260515676, 0.5420810705524102], "bias": -2.8517007182134755}, {"weights": [-1.1671489299816182, 0.0649254599118326, 0.49621953868430485, 0.5611384141716802, 0.35463205272286247, 0.7051556953789969, 0.6724815263461059, 0.7072459260515676, 0.5420810705524102], "bias": -2.8517007182134755}, {"weights": [-1.1671489299816182, 0.0649254599118326, 0.49621953868430485, 0.5611384141716802, 0.35463205272286247, 0.7051556953789969, 0.6724815263461059, 0.7072459260515676, 0.5420810705524102], "bias": -2.8517007182134755}, {"weights": [-1.1671489299816182, 0.0649254599118326, 0.49621953868430485, 0.5611384141716802, 0.35463205272286247, 0.7051556953789969, 0.6724815263461059, 0.7072459260515676, 0.5420810705524102], "bias": -2.8517007182134755}, {"weights": [-1.1671489299816182, 0.0649254599118326, 0.49621953868430485, 0.5611384141716802, 0.35463205272286247, 0.7051556953789969, 0.6724815263461059, 0.7072459260515676, 0.5420810705524102], "bias": -2.8517007182134755}, {"weights": [-1.1671489299816182, 0.0649254599118326, 0.49621953868430485, 0.5611384141716802, 0.35463205272286247, 0.7051556953789969, 0.6724815263461059, 0.7072459260515676, 0.5420810705524102], "bias": -2.8517007182134755}, {"weights": [-1.1671489299816182, 0.0649254599118326, 0.49621953868430485, 0.5611384141716802, 0.35463205272286247, 0.7051556953789969, 0.6724815263461059, 0.7072459260515676, 0.5420810705524102], "bias": -2.8517007182134755}, {"weights": [-1.1671489299816182, 0.0649254599118326, 0.49621953868430485, 0.5611384141716802, 0.35463205272286247, 0.7051556953789969, 0.6724815263461059, 0.7072459260515676, 0.5420810705524102], "bias": -2.8517007182134755}, {"weights": [-1.1671489299816182, 0.0649254599118326, 0.49621953868430485, 0.5611384141716802, 0.35463205272286247, 0.7051556953789969, 0.6724815263461059, 0.7072459260515676, 0.5420810705524102], "bias": -2.8517007182134755}, {"weights": [-1.1671489299816182, 0.0649254599118326, 0.49621953868430485, 0.5611384141716802, 0.35463205272286247, 0.7051556953789969, 0.6724815263461059, 0.7072459260515676, 0.5420810705524102], "bias": -2.8517007182134755}, {"weights": [-1.1671489299816182, 0.0649254599118326, 0.49621953868430485, 0.5611384141716802, 0.35463205272286247, 0.7051556953789969, 0.6724815263461059, 0.7072459260515676, 0.5420810705524102], "bias": -2.8517007182134755}, {"weights": [-1.1671489299816182, 0.0649254599118326, 0.49621953868430485, 0.5611384141716802, 0.35463205272286247, 0.7051556953789969, 0.6724815263461059, 0.7072459260515676, 0.5420810705524102], "bias": -2.8517007182134755}, {"weights": [-1.1671489299816182, 0.0649254599118326, 0.49621953868430485, 0.5611384141716802, 0.35463205272286247, 0.7051556953789969, 0.6724815263461059, 0.7072459260515676, 0.5420810705524102], "bias": -2.8517007182134755}, {"weights": [-1.1671489299816182, 0.0649254599118326, 0.49621953868430485, 0.5611384141716802, 0.35463205272286247, 0.7051556953789969, 0.6724815263461059, 0.7072459260515676, 0.5420810705524102], "bias": -2.8517007182134755}, {"weights": [-1.1671489299816182, 0.0649254599118326, 0.49621953868430485, 0.5611384141716802, 0.35463205272286247, 0.7051556953789969, 0.6724815263461059, 0.7072459260515676, 0.5420810705524102], "bias": -2.8517007182134755}, {"weights": [-1.1671489299816182, 0.0649254599118326, 0.49621953868430485, 0.5611384141716802, 0.35463205272286247, 0.7051556953789969, 0.6724815263461059, 0.7072459260515676, 0.5420810705524102], "bias": -2.8517007182134755}, {"weights": [-1.1671489299816182, 0.0649254599118326, 0.49621953868430485, 0.5611384141716802, 0.35463205272286247, 0.7051556953789969, 0.6724815263461059, 0.7072459260515676, 0.5420810705524102], "bias": -2.8517007182134755}, {"weights": [-1.1671489299816182, 0.0649254599118326, 0.49621953868430485, 0.5611384141716802, 0.35463205272286247, 0.7051556953789969, 0.6724815263461059, 0.7072459260515676, 0.5420810705524102], "bias": -2.8517007182134755}, {"weights": [-1.1671489299816182, 0.0649254599118326, 0.49621953868430485, 0.5611384141716802, 0.35463205272286247, 0.7051556953789969, 0.6724815263461059, 0.7072459260515676, 0.5420810705524102], "bias": -2.8517007182134755}, {"weights": [-1.1671489299816182, 0.0649254599118326, 0.49621953868430485, 0.5611384141716802, 0.35463205272286247, 0.7051556953789969, 0.6724815263461059, 0.7072459260515676, 0.5420810705524102], "bias": -2.8517007182134755}, {"weights": [-1.1671489299816182, 0.0649254599118326, 0.49621953868430485, 0.5611384141716802, 0.35463205272286247, 0.7051556953789969, 0.6724815263461059, 0.7072459260515676, 0.5420810705524102], "bias": -2.8517007182134755}, {"weights": [-1.1671489299816182, 0.0649254599118326, 0.49621953868430485, 0.5611384141716802, 0.35463205272286247, 0.7051556953789969, 0.6724815263461059, 0.7072459260515676, 0.5420810705524102], "bias": -2.8517007182134755}, {"weights": [-1.1671489299816182, 0.0649254599118326, 0.49621953868430485, 0.5611384141716802, 0.35463205272286247, 0.7051556953789969, 0.6724815263461059, 0.7072459260515676, 0.5420810705524102], "bias": -2.8517007182134755}, {"weights": [-1.1671489299816182, 0.0649254599118326, 0.49621953868430485, 0.5611384141716802, 0.35463205272286247, 0.7051556953789969, 0.6724815263461059, 0.7072459260515676, 0.5420810705524102], "bias": -2.8517007182134755}, {"weights": [-1.1671489299816182, 0.0649254599118326, 0.49621953868430485, 0.5611384141716802, 0.35463205272286247, 0.7051556953789969, 0.6724815263461059, 0.7072459260515676, 0.5420810705524102], "bias": -2.8517007182134755}, {"weights": [-1.1671489299816182, 0.0649254599118326, 0.49621953868430485, 0.5611384141716802, 0.35463205272286247, 0.7051556953789969, 0.6724815263461059, 0.7072459260515676, 0.5420810705524102], "bias": -2.8517007182134755}, {"weights": [-1.1671489299816182, 0.0649254599118326, 0.49621953868430485, 0.5611384141716802, 0.35463205272286247, 0.7051556953789969, 0.6724815263461059, 0.7072459260515676, 0.5420810705524102], "bias": -2.8517007182134755}, {"weights": [-1.1671489299816182, 0.0649254599118326, 0.49621953868430485, 0.5611384141716802, 0.35463205272286247, 0.7051556953789969, 0.6724815263461059, 0.7072459260515676, 0.5420810705524102], "bias": -2.8517007182134755}, {"weights": [-1.1671489299816182, 0.0649254599118326, 0.49621953868430485, 0.5611384141716802, 0.35463205272286247, 0.7051556953789969, 0.6724815263461059, 0.7072459260515676, 0.5420810705524102], "bias": -2.8517007182134755}, {"weights": [-1.1671489299816182, 0.0649254599118326, 0.49621953868430485, 0.5611384141716802, 0.35463205272286247, 0.7051556953789969, 0.6724815263461059, 0.7072459260515676, 0.5420810705524102], "bias": -2.8517007182134755}, {"weights": [-1.1671489299816182, 0.0649254599118326, 0.49621953868430485, 0.5611384141716802, 0.35463205272286247, 0.7051556953789969, 0.6724815263461059, 0.7072459260515676, 0.5420810705524102], "bias": -2.8517007182134755}, {"weights": [-1.1671489299816182, 0.0649254599118326, 0.49621953868430485, 0.5611384141716802, 0.35463205272286247, 0.7051556953789969, 0.6724815263461059, 0.7072459260515676, 0.5420810705524102], "bias": -2.8517007182134755}, {"weights": [-1.1671489299816182, 0.0649254599118326, 0.49621953868430485, 0.5611384141716802, 0.35463205272286247, 0.7051556953789969, 0.6724815263461059, 0.7072459260515676, 0.5420810705524102], "bias": -2.8517007182134755}, {"weights": [-1.1671489299816182, 0.0649254599118326, 0.49621953868430485, 0.5611384141716802, 0.35463205272286247, 0.7051556953789969, 0.6724815263461059, 0.7072459260515676, 0.5420810705524102], "bias": -2.8517007182134755}, {"weights": [-1.1671489299816182, 0.0649254599118326, 0.49621953868430485, 0.5611384141716802, 0.35463205272286247, 0.7051556953789969, 0.6724815263461059, 0.7072459260515676, 0.5420810705524102], "bias": -2.8517007182134755}, {"weights": [-1.1671489299816182, 0.0649254599118326, 0.49621953868430485, 0.5611384141716802, 0.35463205272286247, 0.7051556953789969, 0.6724815263461059, 0.7072459260515676, 0.5420810705524102], "bias": -2.8517007182134755}, {"weights": [-1.1671489299816182, 0.0649254599118326, 0.49621953868430485, 0.5611384141716802, 0.35463205272286247, 0.7051556953789969, 0.6724815263461059, 0.7072459260515676, 0.5420810705524102], "bias": -2.8517007182134755}, {"weights": [-1.1671489299816182, 0.0649254599118326, 0.49621953868430485, 0.5611384141716802, 0.35463205272286247, 0.7051556953789969, 0.6724815263461059, 0.7072459260515676, 0.5420810705524102], "bias": -2.8517007182134755}, {"weights": [-1.1671489299816182, 0.0649254599118326, 0.49621953868430485, 0.5611384141716802, 0.35463205272286247, 0.7051556953789969, 0.6724815263461059, 0.7072459260515676, 0.5420810705524102], "bias": -2.8517007182134755}, {"weights": [-1.1671489299816182, 0.0649254599118326, 0.49621953868430485, 0.5611384141716802, 0.35463205272286247, 0.7051556953789969, 0.6724815263461059, 0.7072459260515676, 0.5420810705524102], "bias": -2.8517007182134755}, {"weights": [-1.1671489299816182, 0.0649254599118326, 0.49621953868430485, 0.5611384141716802, 0.35463205272286247, 0.7051556953789969, 0.6724815263461059, 0.7072459260515676, 0.5420810705524102], "bias": -2.8517007182134755}, {"weights": [-1.1671489299816182, 0.0649254599118326, 0.49621953868430485, 0.5611384141716802, 0.35463205272286247, 0.7051556953789969, 0.6724815263461059, 0.7072459260515676, 0.5420810705524102], "bias": -2.8517007182134755}, {"weights": [-1.1671489299816182, 0.0649254599118326, 0.49621953868430485, 0.5611384141716802, 0.35463205272286247, 0.7051556953789969, 0.6724815263461059, 0.7072459260515676, 0.5420810705524102], "bias": -2.8517007182134755}, {"weights": [-1.1671489299816182, 0.0649254599118326, 0.49621953868430485, 0.5611384141716802, 0.35463205272286247, 0.7051556953789969, 0.6724815263461059, 0.7072459260515676, 0.5420810705524102], "bias": -2.8517007182134755}, {"weights": [-1.1671489299816182, 0.0649254599118326, 0.49621953868430485, 0.5611384141716802, 0.35463205272286247, 0.7051556953789969, 0.6724815263461059, 0.7072459260515676, 0.5420810705524102], "bias": -2.8517007182134755}, {"weights": [-1.1671489299816182, 0.0649254599118326, 0.49621953868430485, 0.5611384141716802, 0.35463205272286247, 0.7051556953789969, 0.6724815263461059, 0.7072459260515676, 0.5420810705524102], "bias": -2.8517007182134755}, {"weights": [-1.1671489299816182, 0.0649254599118326, 0.49621953868430485, 0.5611384141716802, 0.35463205272286247, 0.7051556953789969, 0.6724815263461059, 0.7072459260515676, 0.5420810705524102], "bias": -2.8517007182134755}, {"weights": [-1.1671489299816182, 0.0649254599118326, 0.49621953868430485, 0.5611384141716802, 0.35463205272286247, 0.7051556953789969, 0.6724815263461059, 0.7072459260515676, 0.5420810705524102], "bias": -2.8517007182134755}, {"weights": [-1.1671489299816182, 0.0649254599118326, 0.49621953868430485, 0.5611384141716802, 0.35463205272286247, 0.7051556953789969, 0.6724815263461059, 0.7072459260515676, 0.5420810705524102], "bias": -2.8517007182134755}, {"weights": [-1.1671489299816182, 0.0649254599118326, 0.49621953868430485, 0.5611384141716802, 0.35463205272286247, 0.7051556953789969, 0.6724815263461059, 0.7072459260515676, 0.5420810705524102], "bias": -2.8517007182134755}, {"weights": [-1.1671489299816182, 0.0649254599118326, 0.49621953868430485, 0.5611384141716802, 0.35463205272286247, 0.7051556953789969, 0.6724815263461059, 0.7072459260515676, 0.5420810705524102], "bias": -2.8517007182134755}, {"weights": [-1.1671489299816182, 0.0649254599118326, 0.49621953868430485, 0.5611384141716802, 0.35463205272286247, 0.7051556953789969, 0.6724815263461059, 0.7072459260515676, 0.5420810705524102], "bias": -2.8517007182134755}, {"weights": [-1.1671489299816182, 0.0649254599118326, 0.49621953868430485, 0.5611384141716802, 0.35463205272286247, 0.7051556953789969, 0.6724815263461059, 0.7072459260515676, 0.5420810705524102], "bias": -2.8517007182134755}, {"weights": [-1.1671489299816182, 0.0649254599118326, 0.49621953868430485, 0.5611384141716802, 0.35463205272286247, 0.7051556953789969, 0.6724815263461059, 0.7072459260515676, 0.5420810705524102], "bias": -2.8517007182134755}, {"weights": [-1.1671489299816182, 0.0649254599118326, 0.49621953868430485, 0.5611384141716802, 0.35463205272286247, 0.7051556953789969, 0.6724815263461059, 0.7072459260515676, 0.5420810705524102], "bias": -2.8517007182134755}, {"weights": [-1.1671489299816182, 0.0649254599118326, 0.49621953868430485, 0.5611384141716802, 0.35463205272286247, 0.7051556953789969, 0.6724815263461059, 0.7072459260515676, 0.5420810705524102], "bias": -2.8517007182134755}, {"weights": [-1.1671489299816182, 0.0649254599118326, 0.49621953868430485, 0.5611384141716802, 0.35463205272286247, 0.7051556953789969, 0.6724815263461059, 0.7072459260515676, 0.5420810705524102], "bias": -2.8517007182134755}, {"weights": [-1.1671489299816182, 0.0649254599118326, 0.49621953868430485, 0.5611384141716802, 0.35463205272286247, 0.7051556953789969, 0.6724815263461059, 0.7072459260515676, 0.5420810705524102], "bias": -2.8517007182134755}, {"weights": [-1.1671489299816182, 0.0649254599118326, 0.49621953868430485, 0.5611384141716802, 0.35463205272286247, 0.7051556953789969, 0.6724815263461059, 0.7072459260515676, 0.5420810705524102], "bias": -2.8517007182134755}, {"weights": [-1.1671489299816182, 0.0649254599118326, 0.49621953868430485, 0.5611384141716802, 0.35463205272286247, 0.7051556953789969, 0.6724815263461059, 0.7072459260515676, 0.5420810705524102], "bias": -2.8517007182134755}, {"weights": [-1.1671489299816182, 0.0649254599118326, 0.49621953868430485, 0.5611384141716802, 0.35463205272286247, 0.7051556953789969, 0.6724815263461059, 0.7072459260515676, 0.5420810705524102], "bias": -2.8517007182134755}, {"weights": [-1.1671489299816182, 0.0649254599118326, 0.49621953868430485, 0.5611384141716802, 0.35463205272286247, 0.7051556953789969, 0.6724815263461059, 0.7072459260515676, 0.5420810705524102], "bias": -2.8517007182134755}, {"weights": [-1.1671489299816182, 0.0649254599118326, 0.49621953868430485, 0.5611384141716802, 0.35463205272286247, 0.7051556953789969, 0.6724815263461059, 0.7072459260515676, 0.5420810705524102], "bias": -2.8517007182134755}, {"weights": [-1.1671489299816182, 0.0649254599118326, 0.49621953868430485, 0.5611384141716802, 0.35463205272286247, 0.7051556953789969, 0.6724815263461059, 0.7072459260515676, 0.5420810705524102], "bias": -2.8517007182134755}, {"weights": [-1.1671489299816182, 0.0649254599118326, 0.49621953868430485, 0.5611384141716802, 0.35463205272286247, 0.7051556953789969, 0.6724815263461059, 0.7072459260515676, 0.5420810705524102], "bias": -2.8517007182134755}, {"weights": [-1.1671489299816182, 0.0649254599118326, 0.49621953868430485, 0.5611384141716802, 0.35463205272286247, 0.7051556953789969, 0.6724815263461059, 0.7072459260515676, 0.5420810705524102], "bias": -2.8517007182134755}, {"weights": [-1.1671489299816182, 0.0649254599118326, 0.49621953868430485, 0.5611384141716802, 0.35463205272286247, 0.7051556953789969, 0.6724815263461059, 0.7072459260515676, 0.5420810705524102], "bias": -2.8517007182134755}, {"weights": [-1.1671489299816182, 0.0649254599118326, 0.49621953868430485, 0.5611384141716802, 0.35463205272286247, 0.7051556953789969, 0.6724815263461059, 0.7072459260515676, 0.5420810705524102], "bias": -2.8517007182134755}, {"weights": [-1.1671489299816182, 0.0649254599118326, 0.49621953868430485, 0.5611384141716802, 0.35463205272286247, 0.7051556953789969, 0.6724815263461059, 0.7072459260515676, 0.5420810705524102], "bias": -2.8517007182134755}, {"weights": [-1.1671489299816182, 0.0649254599118326, 0.49621953868430485, 0.5611384141716802, 0.35463205272286247, 0.7051556953789969, 0.6724815263461059, 0.7072459260515676, 0.5420810705524102], "bias": -2.8517007182134755}, {"weights": [-1.1671489299816182, 0.0649254599118326, 0.49621953868430485, 0.5611384141716802, 0.35463205272286247, 0.7051556953789969, 0.6724815263461059, 0.7072459260515676, 0.5420810705524102], "bias": -2.8517007182134755}, {"weights": [-1.1671489299816182, 0.0649254599118326, 0.49621953868430485, 0.5611384141716802, 0.35463205272286247, 0.7051556953789969, 0.6724815263461059, 0.7072459260515676, 0.5420810705524102], "bias": -2.8517007182134755}, {"weights": [-1.1671489299816182, 0.0649254599118326, 0.49621953868430485, 0.5611384141716802, 0.35463205272286247, 0.7051556953789969, 0.6724815263461059, 0.7072459260515676, 0.5420810705524102], "bias": -2.8517007182134755}, {"weights": [-1.1671489299816182, 0.0649254599118326, 0.49621953868430485, 0.5611384141716802, 0.35463205272286247, 0.7051556953789969, 0.6724815263461059, 0.7072459260515676, 0.5420810705524102], "bias": -2.8517007182134755}, {"weights": [-1.1671489299816182, 0.0649254599118326, 0.49621953868430485, 0.5611384141716802, 0.35463205272286247, 0.7051556953789969, 0.6724815263461059, 0.7072459260515676, 0.5420810705524102], "bias": -2.8517007182134755}, {"weights": [-1.1671489299816182, 0.0649254599118326, 0.49621953868430485, 0.5611384141716802, 0.35463205272286247, 0.7051556953789969, 0.6724815263461059, 0.7072459260515676, 0.5420810705524102], "bias": -2.8517007182134755}, {"weights": [-1.1671489299816182, 0.0649254599118326, 0.49621953868430485, 0.5611384141716802, 0.35463205272286247, 0.7051556953789969, 0.6724815263461059, 0.7072459260515676, 0.5420810705524102], "bias": -2.8517007182134755}], "outputs": [{"weights": [-0.06089506645082551, -0.06089506645082551, -0.06089506645082551, -0.06089506645082551, -0.06089506645082551, -0.06089506645082551, -0.06089506645082551, -0.06089506645082551, -0.06089506645082551, -0.06089506645082551, -0.06089506645082551, -0.06089506645082551, -0.06089506645082551, -0.06089506645082551, -0.06089506645082551, -0.06089506645082551, -0.06089506645082551, -0.06089506645082551, -0.06089506645082551, -0.06089506645082551, -0.06089506645082551, -0.06089506645082551, -0.06089506645082551, -0.06089506645082551, -0.06089506645082551, -0.06089506645082551, -0.06089506645082551, -0.06089506645082551, -0.06089506645082551, -0.06089506645082551, -0.06089506645082551, -0.06089506645082551, -0.06089506645082551, -0.06089506645082551, -0.06089506645082551, -0.06089506645082551, -0.06089506645082551, -0.06089506645082551, -0.06089506645082551, -0.06089506645082551, -0.06089506645082551, -0.06089506645082551, -0.06089506645082551, -0.06089506645082551, -0.06089506645082551, -0.06089506645082551, -0.06089506645082551, -0.06089506645082551, -0.06089506645082551, -0.06089506645082551, -0.06089506645082551, -0.06089506645082551, -0.06089506645082551, -0.06089506645082551, -0.06089506645082551, -0.06089506645082551, -0.06089506645082551, -0.06089506645082551, -0.06089506645082551, -0.06089506645082551, -0.06089506645082551, -0.06089506645082551, -0.06089506645082551, -0.06089506645082551, -0.06089506645082551, -0.06089506645082551, -0.06089506645082551, -0.06089506645082551, -0.06089506645082551, -0.06089506645082551, -0.06089506645082551, -0.06089506645082551, -0.06089506645082551, -0.06089506645082551, -0.06089506645082551, -0.06089506645082551, -0.06089506645082551, -0.06089506645082551, -0.06089506645082551, -0.06089506645082551, -0.06089506645082551], "bias": -0.01877282933217545}, {"weights": [-0.05724742749759196, -0.05724742749759196, -0.05724742749759196, -0.05724742749759196, -0.05724742749759196, -0.05724742749759196, -0.05724742749759196, -0.05724742749759196, -0.05724742749759196, -0.05724742749759196, -0.05724742749759196, -0.05724742749759196, -0.05724742749759196, -0.05724742749759196, -0.05724742749759196, -0.05724742749759196, -0.05724742749759196, -0.05724742749759196, -0.05724742749759196, -0.05724742749759196, -0.05724742749759196, -0.05724742749759196, -0.05724742749759196, -0.05724742749759196, -0.05724742749759196, -0.05724742749759196, -0.05724742749759196, -0.05724742749759196, -0.05724742749759196, -0.05724742749759196, -0.05724742749759196, -0.05724742749759196, -0.05724742749759196, -0.05724742749759196, -0.05724742749759196, -0.05724742749759196, -0.05724742749759196, -0.05724742749759196, -0.05724742749759196, -0.05724742749759196, -0.05724742749759196, -0.05724742749759196, -0.05724742749759196, -0.05724742749759196, -0.05724742749759196, -0.05724742749759196, -0.05724742749759196, -0.05724742749759196, -0.05724742749759196, -0.05724742749759196, -0.05724742749759196, -0.05724742749759196, -0.05724742749759196, -0.05724742749759196, -0.05724742749759196, -0.05724742749759196, -0.05724742749759196, -0.05724742749759196, -0.05724742749759196, -0.05724742749759196, -0.05724742749759196, -0.05724742749759196, -0.05724742749759196, -0.05724742749759196, -0.05724742749759196, -0.05724742749759196, -0.05724742749759196, -0.05724742749759196, -0.05724742749759196, -0.05724742749759196, -0.05724742749759196, -0.05724742749759196, -0.05724742749759196, -0.05724742749759196, -0.05724742749759196, -0.05724742749759196, -0.05724742749759196, -0.05724742749759196, -0.05724742749759196, -0.05724742749759196, -0.05724742749759196], "bias": -0.07093877534797789}, {"weights": [-0.07756814841727347, -0.07756814841727347, -0.07756814841727347, -0.07756814841727347, -0.07756814841727347, -0.07756814841727347, -0.07756814841727347, -0.07756814841727347, -0.07756814841727347, -0.07756814841727347, -0.07756814841727347, -0.07756814841727347, -0.07756814841727347, -0.07756814841727347, -0.07756814841727347, -0.07756814841727347, -0.07756814841727347, -0.07756814841727347, -0.07756814841727347, -0.07756814841727347, -0.07756814841727347, -0.07756814841727347, -0.07756814841727347, -0.07756814841727347, -0.07756814841727347, -0.07756814841727347, -0.07756814841727347, -0.07756814841727347, -0.07756814841727347, -0.07756814841727347, -0.07756814841727347, -0.07756814841727347, -0.07756814841727347, -0.07756814841727347, -0.07756814841727347, -0.07756814841727347, -0.07756814841727347, -0.07756814841727347, -0.07756814841727347, -0.07756814841727347, -0.07756814841727347, -0.07756814841727347, -0.07756814841727347, -0.07756814841727347, -0.07756814841727347, -0.07756814841727347, -0.07756814841727347, -0.07756814841727347, -0.07756814841727347, -0.07756814841727347, -0.07756814841727347, -0.07756814841727347, -0.07756814841727347, -0.07756814841727347, -0.07756814841727347, -0.07756814841727347, -0.07756814841727347, -0.07756814841727347, -0.07756814841727347, -0.07756814841727347, -0.07756814841727347, -0.07756814841727347, -0.07756814841727347, -0.07756814841727347, -0.07756814841727347, -0.07756814841727347, -0.07756814841727347, -0.07756814841727347, -0.07756814841727347, -0.07756814841727347, -0.07756814841727347, -0.07756814841727347, -0.07756814841727347, -0.07756814841727347, -0.07756814841727347, -0.07756814841727347, -0.07756814841727347, -0.07756814841727347, -0.07756814841727347, -0.07756814841727347, -0.07756814841727347], "bias": 0.09646407144354967}, {"weights": [-0.07073508635141411, -0.07073508635141411, -0.07073508635141411, -0.07073508635141411, -0.07073508635141411, -0.07073508635141411, -0.07073508635141411, -0.07073508635141411, -0.07073508635141411, -0.07073508635141411, -0.07073508635141411, -0.07073508635141411, -0.07073508635141411, -0.07073508635141411, -0.07073508635141411, -0.07073508635141411, -0.07073508635141411, -0.07073508635141411, -0.07073508635141411, -0.07073508635141411, -0.07073508635141411, -0.07073508635141411, -0.07073508635141411, -0.07073508635141411, -0.07073508635141411, -0.07073508635141411, -0.07073508635141411, -0.07073508635141411, -0.07073508635141411, -0.07073508635141411, -0.07073508635141411, -0.07073508635141411, -0.07073508635141411, -0.07073508635141411, -0.07073508635141411, -0.07073508635141411, -0.07073508635141411, -0.07073508635141411, -0.07073508635141411, -0.07073508635141411, -0.07073508635141411, -0.07073508635141411, -0.07073508635141411, -0.07073508635141411, -0.07073508635141411, -0.07073508635141411, -0.07073508635141411, -0.07073508635141411, -0.07073508635141411, -0.07073508635141411, -0.07073508635141411, -0.07073508635141411, -0.07073508635141411, -0.07073508635141411, -0.07073508635141411, -0.07073508635141411, -0.07073508635141411, -0.07073508635141411, -0.07073508635141411, -0.07073508635141411, -0.07073508635141411, -0.07073508635141411, -0.07073508635141411, -0.07073508635141411, -0.07073508635141411, -0.07073508635141411, -0.07073508635141411, -0.07073508635141411, -0.07073508635141411, -0.07073508635141411, -0.07073508635141411, -0.07073508635141411, -0.07073508635141411, -0.07073508635141411, -0.07073508635141411, -0.07073508635141411, -0.07073508635141411, -0.07073508635141411, -0.07073508635141411, -0.07073508635141411, -0.07073508635141411], "bias": 0.03216305861556303}, {"weights": [-0.040630117807773376, -0.040630117807773376, -0.040630117807773376, -0.040630117807773376, -0.040630117807773376, -0.040630117807773376, -0.040630117807773376, -0.040630117807773376, -0.040630117807773376, -0.040630117807773376, -0.040630117807773376, -0.040630117807773376, -0.040630117807773376, -0.040630117807773376, -0.040630117807773376, -0.040630117807773376, -0.040630117807773376, -0.040630117807773376, -0.040630117807773376, -0.040630117807773376, -0.040630117807773376, -0.040630117807773376, -0.040630117807773376, -0.040630117807773376, -0.040630117807773376, -0.040630117807773376, -0.040630117807773376, -0.040630117807773376, -0.040630117807773376, -0.040630117807773376, -0.040630117807773376, -0.040630117807773376, -0.040630117807773376, -0.040630117807773376, -0.040630117807773376, -0.040630117807773376, -0.040630117807773376, -0.040630117807773376, -0.040630117807773376, -0.040630117807773376, -0.040630117807773376, -0.040630117807773376, -0.040630117807773376, -0.040630117807773376, -0.040630117807773376, -0.040630117807773376, -0.040630117807773376, -0.040630117807773376, -0.040630117807773376, -0.040630117807773376, -0.040630117807773376, -0.040630117807773376, -0.040630117807773376, -0.040630117807773376, -0.040630117807773376, -0.040630117807773376, -0.040630117807773376, -0.040630117807773376, -0.040630117807773376, -0.040630117807773376, -0.040630117807773376, -0.040630117807773376, -0.040630117807773376, -0.040630117807773376, -0.040630117807773376, -0.040630117807773376, -0.040630117807773376, -0.040630117807773376, -0.040630117807773376, -0.040630117807773376, -0.040630117807773376, -0.040630117807773376, -0.040630117807773376, -0.040630117807773376, -0.040630117807773376, -0.040630117807773376, -0.040630117807773376, -0.040630117807773376, -0.040630117807773376, -0.040630117807773376, -0.040630117807773376], "bias": 0.06856301706732283}, {"weights": [-0.029584145532789954, -0.029584145532789954, -0.029584145532789954, -0.029584145532789954, -0.029584145532789954, -0.029584145532789954, -0.029584145532789954, -0.029584145532789954, -0.029584145532789954, -0.029584145532789954, -0.029584145532789954, -0.029584145532789954, -0.029584145532789954, -0.029584145532789954, -0.029584145532789954, -0.029584145532789954, -0.029584145532789954, -0.029584145532789954, -0.029584145532789954, -0.029584145532789954, -0.029584145532789954, -0.029584145532789954, -0.029584145532789954, -0.029584145532789954, -0.029584145532789954, -0.029584145532789954, -0.029584145532789954, -0.029584145532789954, -0.029584145532789954, -0.029584145532789954, -0.029584145532789954, -0.029584145532789954, -0.029584145532789954, -0.029584145532789954, -0.029584145532789954, -0.029584145532789954, -0.029584145532789954, -0.029584145532789954, -0.029584145532789954, -0.029584145532789954, -0.029584145532789954, -0.029584145532789954, -0.029584145532789954, -0.029584145532789954, -0.029584145532789954, -0.029584145532789954, -0.029584145532789954, -0.029584145532789954, -0.029584145532789954, -0.029584145532789954, -0.029584145532789954, -0.029584145532789954, -0.029584145532789954, -0.029584145532789954, -0.029584145532789954, -0.029584145532789954, -0.029584145532789954, -0.029584145532789954, -0.029584145532789954, -0.029584145532789954, -0.029584145532789954, -0.029584145532789954, -0.029584145532789954, -0.029584145532789954, -0.029584145532789954, -0.029584145532789954, -0.029584145532789954, -0.029584145532789954, -0.029584145532789954, -0.029584145532789954, -0.029584145532789954, -0.029584145532789954, -0.029584145532789954, -0.029584145532789954, -0.029584145532789954, -0.029584145532789954, -0.029584145532789954, -0.029584145532789954, -0.029584145532789954, -0.029584145532789954, -0.029584145532789954], "bias": -0.2665109617007677}, {"weights": [-0.061595162377094184, -0.061595162377094184, -0.061595162377094184, -0.061595162377094184, -0.061595162377094184, -0.061595162377094184, -0.061595162377094184, -0.061595162377094184, -0.061595162377094184, -0.061595162377094184, -0.061595162377094184, -0.061595162377094184, -0.061595162377094184, -0.061595162377094184, -0.061595162377094184, -0.061595162377094184, -0.061595162377094184, -0.061595162377094184, -0.061595162377094184, -0.061595162377094184, -0.061595162377094184, -0.061595162377094184, -0.061595162377094184, -0.061595162377094184, -0.061595162377094184, -0.061595162377094184, -0.061595162377094184, -0.061595162377094184, -0.061595162377094184, -0.061595162377094184, -0.061595162377094184, -0.061595162377094184, -0.061595162377094184, -0.061595162377094184, -0.061595162377094184, -0.061595162377094184, -0.061595162377094184, -0.061595162377094184, -0.061595162377094184, -0.061595162377094184, -0.061595162377094184, -0.061595162377094184, -0.061595162377094184, -0.061595162377094184, -0.061595162377094184, -0.061595162377094184, -0.061595162377094184, -0.061595162377094184, -0.061595162377094184, -0.061595162377094184, -0.061595162377094184, -0.061595162377094184, -0.061595162377094184, -0.061595162377094184, -0.061595162377094184, -0.061595162377094184, -0.061595162377094184, -0.061595162377094184, -0.061595162377094184, -0.061595162377094184, -0.061595162377094184, -0.061595162377094184, -0.061595162377094184, -0.061595162377094184, -0.061595162377094184, -0.061595162377094184, -0.061595162377094184, -0.061595162377094184, -0.061595162377094184, -0.061595162377094184, -0.061595162377094184, -0.061595162377094184, -0.061595162377094184, -0.061595162377094184, -0.061595162377094184, -0.061595162377094184, -0.061595162377094184, -0.061595162377094184, -0.061595162377094184, -0.061595162377094184, -0.061595162377094184], "bias": 0.012583927281596057}, {"weights": [0.0023009815812365265, 0.0023009815812365265, 0.0023009815812365265, 0.0023009815812365265, 0.0023009815812365265, 0.0023009815812365265, 0.0023009815812365265, 0.0023009815812365265, 0.0023009815812365265, 0.0023009815812365265, 0.0023009815812365265, 0.0023009815812365265, 0.0023009815812365265, 0.0023009815812365265, 0.0023009815812365265, 0.0023009815812365265, 0.0023009815812365265, 0.0023009815812365265, 0.0023009815812365265, 0.0023009815812365265, 0.0023009815812365265, 0.0023009815812365265, 0.0023009815812365265, 0.0023009815812365265, 0.0023009815812365265, 0.0023009815812365265, 0.0023009815812365265, 0.0023009815812365265, 0.0023009815812365265, 0.0023009815812365265, 0.0023009815812365265, 0.0023009815812365265, 0.0023009815812365265, 0.0023009815812365265, 0.0023009815812365265, 0.0023009815812365265, 0.0023009815812365265, 0.0023009815812365265, 0.0023009815812365265, 0.0023009815812365265, 0.0023009815812365265, 0.0023009815812365265, 0.0023009815812365265, 0.0023009815812365265, 0.0023009815812365265, 0.0023009815812365265, 0.0023009815812365265, 0.0023009815812365265, 0.0023009815812365265, 0.0023009815812365265, 0.0023009815812365265, 0.0023009815812365265, 0.0023009815812365265, 0.0023009815812365265, 0.0023009815812365265, 0.0023009815812365265, 0.0023009815812365265, 0.0023009815812365265, 0.0023009815812365265, 0.0023009815812365265, 0.0023009815812365265, 0.0023009815812365265, 0.0023009815812365265, 0.0023009815812365265, 0.0023009815812365265, 0.0023009815812365265, 0.0023009815812365265, 0.0023009815812365265, 0.0023009815812365265, 0.0023009815812365265, 0.0023009815812365265, 0.0023009815812365265, 0.0023009815812365265, 0.0023009815812365265, 0.0023009815812365265, 0.0023009815812365265, 0.0023009815812365265, 0.0023009815812365265, 0.0023009815812365265, 0.0023009815812365265, 0.0023009815812365265], "bias": -0.3753123028167433}, {"weights": [-0.03230821537924077, -0.03230821537924077, -0.03230821537924077, -0.03230821537924077, -0.03230821537924077, -0.03230821537924077, -0.03230821537924077, -0.03230821537924077, -0.03230821537924077, -0.03230821537924077, -0.03230821537924077, -0.03230821537924077, -0.03230821537924077, -0.03230821537924077, -0.03230821537924077, -0.03230821537924077, -0.03230821537924077, -0.03230821537924077, -0.03230821537924077, -0.03230821537924077, -0.03230821537924077, -0.03230821537924077, -0.03230821537924077, -0.03230821537924077, -0.03230821537924077, -0.03230821537924077, -0.03230821537924077, -0.03230821537924077, -0.03230821537924077, -0.03230821537924077, -0.03230821537924077, -0.03230821537924077, -0.03230821537924077, -0.03230821537924077, -0.03230821537924077, -0.03230821537924077, -0.03230821537924077, -0.03230821537924077, -0.03230821537924077, -0.03230821537924077, -0.03230821537924077, -0.03230821537924077, -0.03230821537924077, -0.03230821537924077, -0.03230821537924077, -0.03230821537924077, -0.03230821537924077, -0.03230821537924077, -0.03230821537924077, -0.03230821537924077, -0.03230821537924077, -0.03230821537924077, -0.03230821537924077, -0.03230821537924077, -0.03230821537924077, -0.03230821537924077, -0.03230821537924077, -0.03230821537924077, -0.03230821537924077, -0.03230821537924077, -0.03230821537924077, -0.03230821537924077, -0.03230821537924077, -0.03230821537924077, -0.03230821537924077, -0.03230821537924077, -0.03230821537924077, -0.03230821537924077, -0.03230821537924077, -0.03230821537924077, -0.03230821537924077, -0.03230821537924077, -0.03230821537924077, -0.03230821537924077, -0.03230821537924077, -0.03230821537924077, -0.03230821537924077, -0.03230821537924077, -0.03230821537924077, -0.03230821537924077, -0.03230821537924077], "bias": -0.22584679232060292}]}