{"inputs": 9, "hidden": [{"weights": [0.8232344724092867, 0.4486039571505213, -0.6656223871063577, 0.5399695267671472, 0.5679300547907753, -0.2610501677243564, 0.024269340426938273, 0.08942331551155865, -0.08393216873237148], "bias": 0.3852600312690497}, {"weights": [-0.3394347683223694, -0.24866747525026628, -0.15733091106549843, -0.5182449675232375, -0.6778436762729584, 0.6832838034842355, 0.7119689668562266, -0.28329192491468375, -0.11623867202221054], "bias": -1.021157213396343}, {"weights": [0.8457502351139323, 0.38512445160489955, 0.3197982294238215, 0.32387261002263545, -0.9287604296702557, -0.6114012507630506, 0.30797519540906737, 0.6940666084887901, 0.770503806617187], "bias": -0.7467569422295622}, {"weights": [0.19665075263433832, 0.13380764410844478, -0.3911467284782494, -0.12074841216487066, -0.49867329559713647, -0.050444441203614715, -0.6176573729535206, 0.7432498633906254, -1.2021844462432587], "bias": 1.0599404458955035}, {"weights": [0.36842398346178806, 0.1920784874083608, 0.0016119712752916205, -0.4273845967773134, 1.017402156790956, 0.07948969478268937, 0.9358611329300309, -0.5381912686108543, -0.42761880223593635], "bias": 0.16697963463333837}, {"weights": [-0.4207553263943003, -0.12653394318958114, -1.17614366125272, -0.5952826463742235, 1.0341117910293434, 0.3515705265338726, -1.0123421906680123, 0.9502904463740787, -0.9478274760396457], "bias": 0.8984740413559211}, {"weights": [0.33712001436593275, 0.21123893838938743, 0.9325875523405273, -0.382061454660605, -0.06989298623200198, 0.5566365194714251, -0.9317846191982542, 0.3528999196282728, 0.851742044355885], "bias": 0.914259184224133}, {"weights": [-0.8586352039802511, -0.925950197532818, -0.6001462358215475, 1.1178164100562917, 0.165162485670667, 0.7820147411175814, 1.0443561478112955, 0.8129163822655225, 0.4318402699469616], "bias": -0.6918366663416152}, {"weights": [0.24373458424982997, 0.6725838375149141, -0.7412764063595607, -0.565859740055037, -0.10447810296594351, -0.5672126095450801, -0.25155388463308476, 0.007088641026367497, 0.33802420732691313], "bias": -1.1394665437377247}], "outputs": [{"weights": [0.7986194255516854, 0.3106230487542239, 0.6808712767569463, 0.16507875343085573, -0.5343544648302838, 0.4436554920745253, 1.0626362624240038, -0.48029038257303264, -0.47979552160886674], "bias": 0.9581626995653788}, {"weights": [-1.0234312449227954, 0.33681751962557077, -0.5281304700185865, -0.2607970036634296, 0.430447918807189, -0.8357628709737478, -0.21439306040924436, -0.8629156998239941, -0.4389114766376034], "bias": -0.5516542926316595}, {"weights": [0.44351224611791473, 0.7449970810950439, 0.4652731795556976, -1.2366459693104062, -1.0043725988712024, 0.5595263591180551, 0.30166844879380217, -0.8710002188003385, -0.9771617946637127], "bias": -1.2724554418987448}, {"weights": [1.0208603162493783, 0.7233919520460764, 0.40823422697841755, 0.6255729998835995, -0.3031925725349585, -0.23449370340895834, -0.5779884923237129, 0.4614261093442097, -0.14515747374122182], "bias": 1.5858622016080435}, {"weights": [-0.9335652096714318, 0.7841561927706802, 0.30020465656823553, -0.7757885652184852, 0.1252177110781837, -0.55716619255279, -0.030935258604284154, -0.2590742511488292, -0.04722885679843306], "bias": 0.31793682747633617}, {"weights": [-0.34916474269572323, 0.18310985630788904, -0.32740313389487286, -0.9744613051410217, 0.5455472156851369, -0.5170497503072046, -0.07546774777341196, -0.2484726777219176, 0.2118800473305164], "bias": -0.8718353405789395}, {"weights": [0.5836361134861882, -0.21620154171531364, 0.34894434400727214, 1.291286389275761, 1.4578944763525714, -0.3103475668413759, 0.36593385896281294, 0.15735548709379632, -0.307151345993381], "bias": 0.5666982565555455}, {"weights": [-0.5132034040438636, -0.7320439484400939, -0.4781661002769395, -0.604629037851752, 0.5438141538315641, -0.7669914646193307, -0.9182995586350914, -0.09751552033052159, -0.7186075451889259], "bias": 0.7875042496692667}, {"weights": [-0.20021382938351395, -1.0057139973688134, -0.03884949479746778, -0.5801119596719211, 1.0378426461525398, 1.007934204977134, -0.28484282846997294, -1.0295116008185496, 0.4813482896019058], "bias": -0.3517258752266845}]}