{"inputs": 9, "hidden": [{"weights": [0.9363015347204269, 0.5752641900888811, -0.9321972121821518, 0.6355573819256172, 0.33464037576757333, -0.03961631140284937, 0.27936708395324233, 0.699627569147996, -0.023007362053492814], "bias": 0.09496588304069005}, {"weights": [-0.6198784298640846, -0.4198254410636982, -1.104417662442103, -0.742403618907259, -0.854652959640514, 0.17612718244415948, 0.5254256031540949, -0.41816441679608873, 0.3145910433341485], "bias": -0.7342238652577595}, {"weights": [0.9072053538882449, 0.44222666525229887, 0.10677729447262176, 0.12266681143622762, -0.8668808288306921, -0.6937940684573863, 0.25380125376010504, 0.6787175925252017, 1.010083023452425], "bias": -0.7488288161368538}, {"weights": [0.7314758935118659, 0.06334850036136651, -0.3948492208790884, 0.5191486715921653, -0.5046075921500279, 0.269368463783279, 0.057912002398297115, 1.8342950411644503, -1.8215047332766212], "bias": 0.5906919810476127}, {"weights": [0.6088597002128551, 0.6109878487921875, 1.4218878645138842, 0.03188574379862839, 1.0952277557850643, 0.018475575683411193, 0.561339198536502, -0.965215172844468, -0.30743752957712167], "bias": 0.6876977075332013}, {"weights": [-0.38200110550411354, -0.41859463088509574, -1.3215715652585494, -0.9664072017923276, 1.447246567344167, 0.2887941080783028, -1.262603023041853, 0.6571702231125043, -1.2811865164407423], "bias": 0.8130629626668375}, {"weights": [0.3263680781114784, 0.25304392219235733, 0.963992536498859, -0.5615582899656043, 0.004247384041178385, 0.41379777404637524, -1.0184089793817186, -0.1932402526596958, 0.8762945298226775], "bias": 1.0150854180057607}, {"weights": [-0.8360344551266256, -1.2390282823219705, -1.0644907623143713, 1.8422653024575983, 0.15481605475867646, 0.8705754624360471, 1.2937720940653745, 1.6112782609239977, -0.23185956859104603], "bias": -0.6001953555913181}, {"weights": [0.1919458999170672, 0.12570689423571965, -0.6269598213639858, -0.6710685906454393, 0.28451720111282436, -0.6047149721034184, -0.9188356776048512, -0.5042948084798443, 0.10645328297002639], "bias": -1.2948393490923884}], "outputs": [{"weights": [1.0520623288540938, 0.3627839070027657, 0.7363411083399528, 0.4022475262409084, -0.38491985476733426, 0.6347247541489742, 1.081888353797453, -0.43820561115873635, -0.37158027246891195], "bias": 1.1966252809221738}, {"weights": [-0.7653430691628192, -0.0862655335576548, 0.02322004525643943, -0.027597586828816325, 1.5750514452266597, -1.6755973581433474, 0.29991156167030775, -1.2901397526045517, -0.6102569102591503], "bias": -0.1689592648836381}, {"weights": [0.3805867479883338, 1.1397971147326011, 0.9774575250752007, -1.9162688016626055, -0.7935942209261826, 0.5064268142897844, 0.6753929905540976, -1.5381353777490774, -0.4514941605117851], "bias": -1.006101177328712}, {"weights": [1.257723518137074, 0.8505365094616946, 0.5804940970211192, 0.9118061737432092, -0.09062041566711933, -0.034144367163924334, -0.4335661195184596, 0.470889415150501, 0.07415338359064144], "bias": 1.9178521713013135}, {"weights": [-1.4884993450113213, 1.2928974357785938, -0.4673083856297286, -1.6576114191920193, 0.052360080590586874, -0.17679021919844318, 0.2434521733429054, -1.2394188498263605, 0.9762877911436372], "bias": 0.6369968221166126}, {"weights": [-0.6958629065276466, 0.11950798210508172, -0.6161381588316923, -1.2318028175265738, 0.43061638733236446, -0.608366486095267, -0.04038401581065467, -0.5637879510784347, 0.23013113806583557], "bias": -1.1345401607398125}, {"weights": [0.7572110788451802, -0.17159267116049556, 0.5506527235608212, 1.5197543092888532, 1.6564155163986565, -0.2582624442889475, 0.5717216371519602, 0.16258859081879992, -0.22774621867206646], "bias": 0.8370912508736071}, {"weights": [0.16788375533524094, -0.33213633026877704, 0.14133285516440583, -0.0325358606840866, 1.2972372691517926, -0.38163490006976136, 0.3369588795429547, 0.5570141227896436, -0.5218766897274819], "bias": 2.2024753585370496}, {"weights": [-0.1726190307812267, -1.3680150729182021, 0.12979838210730307, -1.0826973629623977, 2.2920127538771844, 1.2972061470001808, 1.0831564319386766, -2.504167520592991, 0.8027401334680448], "bias": 0.3402388286689707}]}