{"inputs": 9, "hidden": [{"weights": [-0.20197593922346152, -0.0487208993987909, 0.6162042694993355, 0.8774043093491165, 0.31543170802954323, 1.287035587477406, 0.9469914052456239, 0.8229932136950519, 0.2882100939278886], "bias": -1.512577102181385}, {"weights": [-0.20197593922346152, -0.0487208993987909, 0.6162042694993355, 0.8774043093491165, 0.31543170802954323, 1.287035587477406, 0.9469914052456239, 0.8229932136950519, 0.2882100939278886], "bias": -1.512577102181385}, {"weights": [-0.20197593922346152, -0.0487208993987909, 0.6162042694993355, 0.8774043093491165, 0.31543170802954323, 1.287035587477406, 0.9469914052456239, 0.8229932136950519, 0.2882100939278886], "bias": -1.512577102181385}, {"weights": [-0.20197593922346152, -0.0487208993987909, 0.6162042694993355, 0.8774043093491165, 0.31543170802954323, 1.287035587477406, 0.9469914052456239, 0.8229932136950519, 0.2882100939278886], "bias": -1.512577102181385}, {"weights": [-0.20197593922346152, -0.0487208993987909, 0.6162042694993355, 0.8774043093491165, 0.31543170802954323, 1.287035587477406, 0.9469914052456239, 0.8229932136950519, 0.2882100939278886], "bias": -1.512577102181385}, {"weights": [-0.20197593922346152, -0.0487208993987909, 0.6162042694993355, 0.8774043093491165, 0.31543170802954323, 1.287035587477406, 0.9469914052456239, 0.8229932136950519, 0.2882100939278886], "bias": -1.512577102181385}, {"weights": [-0.20197593922346152, -0.0487208993987909, 0.6162042694993355, 0.8774043093491165, 0.31543170802954323, 1.287035587477406, 0.9469914052456239, 0.8229932136950519, 0.2882100939278886], "bias": -1.512577102181385}, {"weights": [-0.20197593922346152, -0.0487208993987909, 0.6162042694993355, 0.8774043093491165, 0.31543170802954323, 1.287035587477406, 0.9469914052456239, 0.8229932136950519, 0.2882100939278886], "bias": -1.512577102181385}, {"weights": [-0.20197593922346152, -0.0487208993987909, 0.6162042694993355, 0.8774043093491165, 0.31543170802954323, 1.287035587477406, 0.9469914052456239, 0.8229932136950519, 0.2882100939278886], "bias": -1.512577102181385}, {"weights": [-0.20197593922346152, -0.0487208993987909, 0.6162042694993355, 0.8774043093491165, 0.31543170802954323, 1.287035587477406, 0.9469914052456239, 0.8229932136950519, 0.2882100939278886], "bias": -1.512577102181385}, {"weights": [-0.20197593922346152, -0.0487208993987909, 0.6162042694993355, 0.8774043093491165, 0.31543170802954323, 1.287035587477406, 0.9469914052456239, 0.8229932136950519, 0.2882100939278886], "bias": -1.512577102181385}, {"weights": [-0.20197593922346152, -0.0487208993987909, 0.6162042694993355, 0.8774043093491165, 0.31543170802954323, 1.287035587477406, 0.9469914052456239, 0.8229932136950519, 0.2882100939278886], "bias": -1.512577102181385}, {"weights": [-0.20197593922346152, -0.0487208993987909, 0.6162042694993355, 0.8774043093491165, 0.31543170802954323, 1.287035587477406, 0.9469914052456239, 0.8229932136950519, 0.2882100939278886], "bias": -1.512577102181385}, {"weights": [-0.20197593922346152, -0.0487208993987909, 0.6162042694993355, 0.8774043093491165, 0.31543170802954323, 1.287035587477406, 0.9469914052456239, 0.8229932136950519, 0.2882100939278886], "bias": -1.512577102181385}, {"weights": [-0.20197593922346152, -0.0487208993987909, 0.6162042694993355, 0.8774043093491165, 0.31543170802954323, 1.287035587477406, 0.9469914052456239, 0.8229932136950519, 0.2882100939278886], "bias": -1.512577102181385}, {"weights": [-0.20197593922346152, -0.0487208993987909, 0.6162042694993355, 0.8774043093491165, 0.31543170802954323, 1.287035587477406, 0.9469914052456239, 0.8229932136950519, 0.2882100939278886], "bias": -1.512577102181385}, {"weights": [-0.20197593922346152, -0.0487208993987909, 0.6162042694993355, 0.8774043093491165, 0.31543170802954323, 1.287035587477406, 0.9469914052456239, 0.8229932136950519, 0.2882100939278886], "bias": -1.512577102181385}, {"weights": [-0.20197593922346152, -0.0487208993987909, 0.6162042694993355, 0.8774043093491165, 0.31543170802954323, 1.287035587477406, 0.9469914052456239, 0.8229932136950519, 0.2882100939278886], "bias": -1.512577102181385}, {"weights": [-0.20197593922346152, -0.0487208993987909, 0.6162042694993355, 0.8774043093491165, 0.31543170802954323, 1.287035587477406, 0.9469914052456239, 0.8229932136950519, 0.2882100939278886], "bias": -1.512577102181385}, {"weights": [-0.20197593922346152, -0.0487208993987909, 0.6162042694993355, 0.8774043093491165, 0.31543170802954323, 1.287035587477406, 0.9469914052456239, 0.8229932136950519, 0.2882100939278886], "bias": -1.512577102181385}, {"weights": [-0.20197593922346152, -0.0487208993987909, 0.6162042694993355, 0.8774043093491165, 0.31543170802954323, 1.287035587477406, 0.9469914052456239, 0.8229932136950519, 0.2882100939278886], "bias": -1.512577102181385}, {"weights": [-0.20197593922346152, -0.0487208993987909, 0.6162042694993355, 0.8774043093491165, 0.31543170802954323, 1.287035587477406, 0.9469914052456239, 0.8229932136950519, 0.2882100939278886], "bias": -1.512577102181385}, {"weights": [-0.20197593922346152, -0.0487208993987909, 0.6162042694993355, 0.8774043093491165, 0.31543170802954323, 1.287035587477406, 0.9469914052456239, 0.8229932136950519, 0.2882100939278886], "bias": -1.512577102181385}, {"weights": [-0.20197593922346152, -0.0487208993987909, 0.6162042694993355, 0.8774043093491165, 0.31543170802954323, 1.287035587477406, 0.9469914052456239, 0.8229932136950519, 0.2882100939278886], "bias": -1.512577102181385}, {"weights": [-0.20197593922346152, -0.0487208993987909, 0.6162042694993355, 0.8774043093491165, 0.31543170802954323, 1.287035587477406, 0.9469914052456239, 0.8229932136950519, 0.2882100939278886], "bias": -1.512577102181385}, {"weights": [-0.20197593922346152, -0.0487208993987909, 0.6162042694993355, 0.8774043093491165, 0.31543170802954323, 1.287035587477406, 0.9469914052456239, 0.8229932136950519, 0.2882100939278886], "bias": -1.512577102181385}, {"weights": [-0.20197593922346152, -0.0487208993987909, 0.6162042694993355, 0.8774043093491165, 0.31543170802954323, 1.287035587477406, 0.9469914052456239, 0.8229932136950519, 0.2882100939278886], "bias": -1.512577102181385}, {"weights": [-0.20197593922346152, -0.0487208993987909, 0.6162042694993355, 0.8774043093491165, 0.31543170802954323, 1.287035587477406, 0.9469914052456239, 0.8229932136950519, 0.2882100939278886], "bias": -1.512577102181385}, {"weights": [-0.20197593922346152, -0.0487208993987909, 0.6162042694993355, 0.8774043093491165, 0.31543170802954323, 1.287035587477406, 0.9469914052456239, 0.8229932136950519, 0.2882100939278886], "bias": -1.512577102181385}, {"weights": [-0.20197593922346152, -0.0487208993987909, 0.6162042694993355, 0.8774043093491165, 0.31543170802954323, 1.287035587477406, 0.9469914052456239, 0.8229932136950519, 0.2882100939278886], "bias": -1.512577102181385}, {"weights": [-0.20197593922346152, -0.0487208993987909, 0.6162042694993355, 0.8774043093491165, 0.31543170802954323, 1.287035587477406, 0.9469914052456239, 0.8229932136950519, 0.2882100939278886], "bias": -1.512577102181385}, {"weights": [-0.20197593922346152, -0.0487208993987909, 0.6162042694993355, 0.8774043093491165, 0.31543170802954323, 1.287035587477406, 0.9469914052456239, 0.8229932136950519, 0.2882100939278886], "bias": -1.512577102181385}, {"weights": [-0.20197593922346152, -0.0487208993987909, 0.6162042694993355, 0.8774043093491165, 0.31543170802954323, 1.287035587477406, 0.9469914052456239, 0.8229932136950519, 0.2882100939278886], "bias": -1.512577102181385}, {"weights": [-0.20197593922346152, -0.0487208993987909, 0.6162042694993355, 0.8774043093491165, 0.31543170802954323, 1.287035587477406, 0.9469914052456239, 0.8229932136950519, 0.2882100939278886], "bias": -1.512577102181385}, {"weights": [-0.20197593922346152, -0.0487208993987909, 0.6162042694993355, 0.8774043093491165, 0.31543170802954323, 1.287035587477406, 0.9469914052456239, 0.8229932136950519, 0.2882100939278886], "bias": -1.512577102181385}, {"weights": [-0.20197593922346152, -0.0487208993987909, 0.6162042694993355, 0.8774043093491165, 0.31543170802954323, 1.287035587477406, 0.9469914052456239, 0.8229932136950519, 0.2882100939278886], "bias": -1.512577102181385}, {"weights": [-0.20197593922346152, -0.0487208993987909, 0.6162042694993355, 0.8774043093491165, 0.31543170802954323, 1.287035587477406, 0.9469914052456239, 0.8229932136950519, 0.2882100939278886], "bias": -1.512577102181385}, {"weights": [-0.20197593922346152, -0.0487208993987909, 0.6162042694993355, 0.8774043093491165, 0.31543170802954323, 1.287035587477406, 0.9469914052456239, 0.8229932136950519, 0.2882100939278886], "bias": -1.512577102181385}, {"weights": [-0.20197593922346152, -0.0487208993987909, 0.6162042694993355, 0.8774043093491165, 0.31543170802954323, 1.287035587477406, 0.9469914052456239, 0.8229932136950519, 0.2882100939278886], "bias": -1.512577102181385}, {"weights": [-0.20197593922346152, -0.0487208993987909, 0.6162042694993355, 0.8774043093491165, 0.31543170802954323, 1.287035587477406, 0.9469914052456239, 0.8229932136950519, 0.2882100939278886], "bias": -1.512577102181385}, {"weights": [-0.20197593922346152, -0.0487208993987909, 0.6162042694993355, 0.8774043093491165, 0.31543170802954323, 1.287035587477406, 0.9469914052456239, 0.8229932136950519, 0.2882100939278886], "bias": -1.512577102181385}, {"weights": [-0.20197593922346152, -0.0487208993987909, 0.6162042694993355, 0.8774043093491165, 0.31543170802954323, 1.287035587477406, 0.9469914052456239, 0.8229932136950519, 0.2882100939278886], "bias": -1.512577102181385}, {"weights": [-0.20197593922346152, -0.0487208993987909, 0.6162042694993355, 0.8774043093491165, 0.31543170802954323, 1.287035587477406, 0.9469914052456239, 0.8229932136950519, 0.2882100939278886], "bias": -1.512577102181385}, {"weights": [-0.20197593922346152, -0.0487208993987909, 0.6162042694993355, 0.8774043093491165, 0.31543170802954323, 1.287035587477406, 0.9469914052456239, 0.8229932136950519, 0.2882100939278886], "bias": -1.512577102181385}, {"weights": [-0.20197593922346152, -0.0487208993987909, 0.6162042694993355, 0.8774043093491165, 0.31543170802954323, 1.287035587477406, 0.9469914052456239, 0.8229932136950519, 0.2882100939278886], "bias": -1.512577102181385}, {"weights": [-0.20197593922346152, -0.0487208993987909, 0.6162042694993355, 0.8774043093491165, 0.31543170802954323, 1.287035587477406, 0.9469914052456239, 0.8229932136950519, 0.2882100939278886], "bias": -1.512577102181385}, {"weights": [-0.20197593922346152, -0.0487208993987909, 0.6162042694993355, 0.8774043093491165, 0.31543170802954323, 1.287035587477406, 0.9469914052456239, 0.8229932136950519, 0.2882100939278886], "bias": -1.512577102181385}, {"weights": [-0.20197593922346152, -0.0487208993987909, 0.6162042694993355, 0.8774043093491165, 0.31543170802954323, 1.287035587477406, 0.9469914052456239, 0.8229932136950519, 0.2882100939278886], "bias": -1.512577102181385}, {"weights": [-0.20197593922346152, -0.0487208993987909, 0.6162042694993355, 0.8774043093491165, 0.31543170802954323, 1.287035587477406, 0.9469914052456239, 0.8229932136950519, 0.2882100939278886], "bias": -1.512577102181385}, {"weights": [-0.20197593922346152, -0.0487208993987909, 0.6162042694993355, 0.8774043093491165, 0.31543170802954323, 1.287035587477406, 0.9469914052456239, 0.8229932136950519, 0.2882100939278886], "bias": -1.512577102181385}, {"weights": [-0.20197593922346152, -0.0487208993987909, 0.6162042694993355, 0.8774043093491165, 0.31543170802954323, 1.287035587477406, 0.9469914052456239, 0.8229932136950519, 0.2882100939278886], "bias": -1.512577102181385}, {"weights": [-0.20197593922346152, -0.0487208993987909, 0.6162042694993355, 0.8774043093491165, 0.31543170802954323, 1.287035587477406, 0.9469914052456239, 0.8229932136950519, 0.2882100939278886], "bias": -1.512577102181385}, {"weights": [-0.20197593922346152, -0.0487208993987909, 0.6162042694993355, 0.8774043093491165, 0.31543170802954323, 1.287035587477406, 0.9469914052456239, 0.8229932136950519, 0.2882100939278886], "bias": -1.512577102181385}, {"weights": [-0.20197593922346152, -0.0487208993987909, 0.6162042694993355, 0.8774043093491165, 0.31543170802954323, 1.287035587477406, 0.9469914052456239, 0.8229932136950519, 0.2882100939278886], "bias": -1.512577102181385}, {"weights": [-0.20197593922346152, -0.0487208993987909, 0.6162042694993355, 0.8774043093491165, 0.31543170802954323, 1.287035587477406, 0.9469914052456239, 0.8229932136950519, 0.2882100939278886], "bias": -1.512577102181385}, {"weights": [-0.20197593922346152, -0.0487208993987909, 0.6162042694993355, 0.8774043093491165, 0.31543170802954323, 1.287035587477406, 0.9469914052456239, 0.8229932136950519, 0.2882100939278886], "bias": -1.512577102181385}, {"weights": [-0.20197593922346152, -0.0487208993987909, 0.6162042694993355, 0.8774043093491165, 0.31543170802954323, 1.287035587477406, 0.9469914052456239, 0.8229932136950519, 0.2882100939278886], "bias": -1.512577102181385}, {"weights": [-0.20197593922346152, -0.0487208993987909, 0.6162042694993355, 0.8774043093491165, 0.31543170802954323, 1.287035587477406, 0.9469914052456239, 0.8229932136950519, 0.2882100939278886], "bias": -1.512577102181385}, {"weights": [-0.20197593922346152, -0.0487208993987909, 0.6162042694993355, 0.8774043093491165, 0.31543170802954323, 1.287035587477406, 0.9469914052456239, 0.8229932136950519, 0.2882100939278886], "bias": -1.512577102181385}, {"weights": [-0.20197593922346152, -0.0487208993987909, 0.6162042694993355, 0.8774043093491165, 0.31543170802954323, 1.287035587477406, 0.9469914052456239, 0.8229932136950519, 0.2882100939278886], "bias": -1.512577102181385}, {"weights": [-0.20197593922346152, -0.0487208993987909, 0.6162042694993355, 0.8774043093491165, 0.31543170802954323, 1.287035587477406, 0.9469914052456239, 0.8229932136950519, 0.2882100939278886], "bias": -1.512577102181385}, {"weights": [-0.20197593922346152, -0.0487208993987909, 0.6162042694993355, 0.8774043093491165, 0.31543170802954323, 1.287035587477406, 0.9469914052456239, 0.8229932136950519, 0.2882100939278886], "bias": -1.512577102181385}, {"weights": [-0.20197593922346152, -0.0487208993987909, 0.6162042694993355, 0.8774043093491165, 0.31543170802954323, 1.287035587477406, 0.9469914052456239, 0.8229932136950519, 0.2882100939278886], "bias": -1.512577102181385}, {"weights": [-0.20197593922346152, -0.0487208993987909, 0.6162042694993355, 0.8774043093491165, 0.31543170802954323, 1.287035587477406, 0.9469914052456239, 0.8229932136950519, 0.2882100939278886], "bias": -1.512577102181385}, {"weights": [-0.20197593922346152, -0.0487208993987909, 0.6162042694993355, 0.8774043093491165, 0.31543170802954323, 1.287035587477406, 0.9469914052456239, 0.8229932136950519, 0.2882100939278886], "bias": -1.512577102181385}, {"weights": [-0.20197593922346152, -0.0487208993987909, 0.6162042694993355, 0.8774043093491165, 0.31543170802954323, 1.287035587477406, 0.9469914052456239, 0.8229932136950519, 0.2882100939278886], "bias": -1.512577102181385}, {"weights": [-0.20197593922346152, -0.0487208993987909, 0.6162042694993355, 0.8774043093491165, 0.31543170802954323, 1.287035587477406, 0.9469914052456239, 0.8229932136950519, 0.2882100939278886], "bias": -1.512577102181385}, {"weights": [-0.20197593922346152, -0.0487208993987909, 0.6162042694993355, 0.8774043093491165, 0.31543170802954323, 1.287035587477406, 0.9469914052456239, 0.8229932136950519, 0.2882100939278886], "bias": -1.512577102181385}, {"weights": [-0.20197593922346152, -0.0487208993987909, 0.6162042694993355, 0.8774043093491165, 0.31543170802954323, 1.287035587477406, 0.9469914052456239, 0.8229932136950519, 0.2882100939278886], "bias": -1.512577102181385}, {"weights": [-0.20197593922346152, -0.0487208993987909, 0.6162042694993355, 0.8774043093491165, 0.31543170802954323, 1.287035587477406, 0.9469914052456239, 0.8229932136950519, 0.2882100939278886], "bias": -1.512577102181385}, {"weights": [-0.20197593922346152, -0.0487208993987909, 0.6162042694993355, 0.8774043093491165, 0.31543170802954323, 1.287035587477406, 0.9469914052456239, 0.8229932136950519, 0.2882100939278886], "bias": -1.512577102181385}, {"weights": [-0.20197593922346152, -0.0487208993987909, 0.6162042694993355, 0.8774043093491165, 0.31543170802954323, 1.287035587477406, 0.9469914052456239, 0.8229932136950519, 0.2882100939278886], "bias": -1.512577102181385}, {"weights": [-0.20197593922346152, -0.0487208993987909, 0.6162042694993355, 0.8774043093491165, 0.31543170802954323, 1.287035587477406, 0.9469914052456239, 0.8229932136950519, 0.2882100939278886], "bias": -1.512577102181385}, {"weights": [-0.20197593922346152, -0.0487208993987909, 0.6162042694993355, 0.8774043093491165, 0.31543170802954323, 1.287035587477406, 0.9469914052456239, 0.8229932136950519, 0.2882100939278886], "bias": -1.512577102181385}, {"weights": [-0.20197593922346152, -0.0487208993987909, 0.6162042694993355, 0.8774043093491165, 0.31543170802954323, 1.287035587477406, 0.9469914052456239, 0.8229932136950519, 0.2882100939278886], "bias": -1.512577102181385}, {"weights": [-0.20197593922346152, -0.0487208993987909, 0.6162042694993355, 0.8774043093491165, 0.31543170802954323, 1.287035587477406, 0.9469914052456239, 0.8229932136950519, 0.2882100939278886], "bias": -1.512577102181385}, {"weights": [-0.20197593922346152, -0.0487208993987909, 0.6162042694993355, 0.8774043093491165, 0.31543170802954323, 1.287035587477406, 0.9469914052456239, 0.8229932136950519, 0.2882100939278886], "bias": -1.512577102181385}, {"weights": [-0.20197593922346152, -0.0487208993987909, 0.6162042694993355, 0.8774043093491165, 0.31543170802954323, 1.287035587477406, 0.9469914052456239, 0.8229932136950519, 0.2882100939278886], "bias": -1.512577102181385}, {"weights": [-0.20197593922346152, -0.0487208993987909, 0.6162042694993355, 0.8774043093491165, 0.31543170802954323, 1.287035587477406, 0.9469914052456239, 0.8229932136950519, 0.2882100939278886], "bias": -1.512577102181385}, {"weights": [-0.20197593922346152, -0.0487208993987909, 0.6162042694993355, 0.8774043093491165, 0.31543170802954323, 1.287035587477406, 0.9469914052456239, 0.8229932136950519, 0.2882100939278886], "bias": -1.512577102181385}, {"weights": [-0.20197593922346152, -0.0487208993987909, 0.6162042694993355, 0.8774043093491165, 0.31543170802954323, 1.287035587477406, 0.9469914052456239, 0.8229932136950519, 0.2882100939278886], "bias": -1.512577102181385}], "outputs": [{"weights": [-0.06935695142173368, -0.06935695142173368, -0.06935695142173368, -0.06935695142173368, -0.06935695142173368, -0.06935695142173368, -0.06935695142173368, -0.06935695142173368, -0.06935695142173368, -0.06935695142173368, -0.06935695142173368, -0.06935695142173368, -0.06935695142173368, -0.06935695142173368, -0.06935695142173368, -0.06935695142173368, -0.06935695142173368, -0.06935695142173368, -0.06935695142173368, -0.06935695142173368, -0.06935695142173368, -0.06935695142173368, -0.06935695142173368, -0.06935695142173368, -0.06935695142173368, -0.06935695142173368, -0.06935695142173368, -0.06935695142173368, -0.06935695142173368, -0.06935695142173368, -0.06935695142173368, -0.06935695142173368, -0.06935695142173368, -0.06935695142173368, -0.06935695142173368, -0.06935695142173368, -0.06935695142173368, -0.06935695142173368, -0.06935695142173368, -0.06935695142173368, -0.06935695142173368, -0.06935695142173368, -0.06935695142173368, -0.06935695142173368, -0.06935695142173368, -0.06935695142173368, -0.06935695142173368, -0.06935695142173368, -0.06935695142173368, -0.06935695142173368, -0.06935695142173368, -0.06935695142173368, -0.06935695142173368, -0.06935695142173368, -0.06935695142173368, -0.06935695142173368, -0.06935695142173368, -0.06935695142173368, -0.06935695142173368, -0.06935695142173368, -0.06935695142173368, -0.06935695142173368, -0.06935695142173368, -0.06935695142173368, -0.06935695142173368, -0.06935695142173368, -0.06935695142173368, -0.06935695142173368, -0.06935695142173368, -0.06935695142173368, -0.06935695142173368, -0.06935695142173368, -0.06935695142173368, -0.06935695142173368, -0.06935695142173368, -0.06935695142173368, -0.06935695142173368, -0.06935695142173368, -0.06935695142173368, -0.06935695142173368, -0.06935695142173368], "bias": 0.2039553195352979}, {"weights": [-0.06019986205956836, -0.06019986205956836, -0.06019986205956836, -0.06019986205956836, -0.06019986205956836, -0.06019986205956836, -0.06019986205956836, -0.06019986205956836, -0.06019986205956836, -0.06019986205956836, -0.06019986205956836, -0.06019986205956836, -0.06019986205956836, -0.06019986205956836, -0.06019986205956836, -0.06019986205956836, -0.06019986205956836, -0.06019986205956836, -0.06019986205956836, -0.06019986205956836, -0.06019986205956836, -0.06019986205956836, -0.06019986205956836, -0.06019986205956836, -0.06019986205956836, -0.06019986205956836, -0.06019986205956836, -0.06019986205956836, -0.06019986205956836, -0.06019986205956836, -0.06019986205956836, -0.06019986205956836, -0.06019986205956836, -0.06019986205956836, -0.06019986205956836, -0.06019986205956836, -0.06019986205956836, -0.06019986205956836, -0.06019986205956836, -0.06019986205956836, -0.06019986205956836, -0.06019986205956836, -0.06019986205956836, -0.06019986205956836, -0.06019986205956836, -0.06019986205956836, -0.06019986205956836, -0.06019986205956836, -0.06019986205956836, -0.06019986205956836, -0.06019986205956836, -0.06019986205956836, -0.06019986205956836, -0.06019986205956836, -0.06019986205956836, -0.06019986205956836, -0.06019986205956836, -0.06019986205956836, -0.06019986205956836, -0.06019986205956836, -0.06019986205956836, -0.06019986205956836, -0.06019986205956836, -0.06019986205956836, -0.06019986205956836, -0.06019986205956836, -0.06019986205956836, -0.06019986205956836, -0.06019986205956836, -0.06019986205956836, -0.06019986205956836, -0.06019986205956836, -0.06019986205956836, -0.06019986205956836, -0.06019986205956836, -0.06019986205956836, -0.06019986205956836, -0.06019986205956836, -0.06019986205956836, -0.06019986205956836, -0.06019986205956836], "bias": -0.13143171987027194}, {"weights": [-0.11460198199735964, -0.11460198199735964, -0.11460198199735964, -0.11460198199735964, -0.11460198199735964, -0.11460198199735964, -0.11460198199735964, -0.11460198199735964, -0.11460198199735964, -0.11460198199735964, -0.11460198199735964, -0.11460198199735964, -0.11460198199735964, -0.11460198199735964, -0.11460198199735964, -0.11460198199735964, -0.11460198199735964, -0.11460198199735964, -0.11460198199735964, -0.11460198199735964, -0.11460198199735964, -0.11460198199735964, -0.11460198199735964, -0.11460198199735964, -0.11460198199735964, -0.11460198199735964, -0.11460198199735964, -0.11460198199735964, -0.11460198199735964, -0.11460198199735964, -0.11460198199735964, -0.11460198199735964, -0.11460198199735964, -0.11460198199735964, -0.11460198199735964, -0.11460198199735964, -0.11460198199735964, -0.11460198199735964, -0.11460198199735964, -0.11460198199735964, -0.11460198199735964, -0.11460198199735964, -0.11460198199735964, -0.11460198199735964, -0.11460198199735964, -0.11460198199735964, -0.11460198199735964, -0.11460198199735964, -0.11460198199735964, -0.11460198199735964, -0.11460198199735964, -0.11460198199735964, -0.11460198199735964, -0.11460198199735964, -0.11460198199735964, -0.11460198199735964, -0.11460198199735964, -0.11460198199735964, -0.11460198199735964, -0.11460198199735964, -0.11460198199735964, -0.11460198199735964, -0.11460198199735964, -0.11460198199735964, -0.11460198199735964, -0.11460198199735964, -0.11460198199735964, -0.11460198199735964, -0.11460198199735964, -0.11460198199735964, -0.11460198199735964, -0.11460198199735964, -0.11460198199735964, -0.11460198199735964, -0.11460198199735964, -0.11460198199735964, -0.11460198199735964, -0.11460198199735964, -0.11460198199735964, -0.11460198199735964, -0.11460198199735964], "bias": -0.20858912242808927}, {"weights": [0.014861282060555344, 0.014861282060555344, 0.014861282060555344, 0.014861282060555344, 0.014861282060555344, 0.014861282060555344, 0.014861282060555344, 0.014861282060555344, 0.014861282060555344, 0.014861282060555344, 0.014861282060555344, 0.014861282060555344, 0.014861282060555344, 0.014861282060555344, 0.014861282060555344, 0.014861282060555344, 0.014861282060555344, 0.014861282060555344, 0.014861282060555344, 0.014861282060555344, 0.014861282060555344, 0.014861282060555344, 0.014861282060555344, 0.014861282060555344, 0.014861282060555344, 0.014861282060555344, 0.014861282060555344, 0.014861282060555344, 0.014861282060555344, 0.014861282060555344, 0.014861282060555344, 0.014861282060555344, 0.014861282060555344, 0.014861282060555344, 0.014861282060555344, 0.014861282060555344, 0.014861282060555344, 0.014861282060555344, 0.014861282060555344, 0.014861282060555344, 0.014861282060555344, 0.014861282060555344, 0.014861282060555344, 0.014861282060555344, 0.014861282060555344, 0.014861282060555344, 0.014861282060555344, 0.014861282060555344, 0.014861282060555344, 0.014861282060555344, 0.014861282060555344, 0.014861282060555344, 0.014861282060555344, 0.014861282060555344, 0.014861282060555344, 0.014861282060555344, 0.014861282060555344, 0.014861282060555344, 0.014861282060555344, 0.014861282060555344, 0.014861282060555344, 0.014861282060555344, 0.014861282060555344, 0.014861282060555344, 0.014861282060555344, 0.014861282060555344, 0.014861282060555344, 0.014861282060555344, 0.014861282060555344, 0.014861282060555344, 0.014861282060555344, 0.014861282060555344, 0.014861282060555344, 0.014861282060555344, 0.014861282060555344, 0.014861282060555344, 0.014861282060555344, 0.014861282060555344, 0.014861282060555344, 0.014861282060555344, 0.014861282060555344], "bias": 0.31143978149028273}, {"weights": [-0.09580947298861647, -0.09580947298861647, -0.09580947298861647, -0.09580947298861647, -0.09580947298861647, -0.09580947298861647, -0.09580947298861647, -0.09580947298861647, -0.09580947298861647, -0.09580947298861647, -0.09580947298861647, -0.09580947298861647, -0.09580947298861647, -0.09580947298861647, -0.09580947298861647, -0.09580947298861647, -0.09580947298861647, -0.09580947298861647, -0.09580947298861647, -0.09580947298861647, -0.09580947298861647, -0.09580947298861647, -0.09580947298861647, -0.09580947298861647, -0.09580947298861647, -0.09580947298861647, -0.09580947298861647, -0.09580947298861647, -0.09580947298861647, -0.09580947298861647, -0.09580947298861647, -0.09580947298861647, -0.09580947298861647, -0.09580947298861647, -0.09580947298861647, -0.09580947298861647, -0.09580947298861647, -0.09580947298861647, -0.09580947298861647, -0.09580947298861647, -0.09580947298861647, -0.09580947298861647, -0.09580947298861647, -0.09580947298861647, -0.09580947298861647, -0.09580947298861647, -0.09580947298861647, -0.09580947298861647, -0.09580947298861647, -0.09580947298861647, -0.09580947298861647, -0.09580947298861647, -0.09580947298861647, -0.09580947298861647, -0.09580947298861647, -0.09580947298861647, -0.09580947298861647, -0.09580947298861647, -0.09580947298861647, -0.09580947298861647, -0.09580947298861647, -0.09580947298861647, -0.09580947298861647, -0.09580947298861647, -0.09580947298861647, -0.09580947298861647, -0.09580947298861647, -0.09580947298861647, -0.09580947298861647, -0.09580947298861647, -0.09580947298861647, -0.09580947298861647, -0.09580947298861647, -0.09580947298861647, -0.09580947298861647, -0.09580947298861647, -0.09580947298861647, -0.09580947298861647, -0.09580947298861647, -0.09580947298861647, -0.09580947298861647], "bias": 0.1570974875411446}, {"weights": [-0.08932301141802212, -0.08932301141802212, -0.08932301141802212, -0.08932301141802212, -0.08932301141802212, -0.08932301141802212, -0.08932301141802212, -0.08932301141802212, -0.08932301141802212, -0.08932301141802212, -0.08932301141802212, -0.08932301141802212, -0.08932301141802212, -0.08932301141802212, -0.08932301141802212, -0.08932301141802212, -0.08932301141802212, -0.08932301141802212, -0.08932301141802212, -0.08932301141802212, -0.08932301141802212, -0.08932301141802212, -0.08932301141802212, -0.08932301141802212, -0.08932301141802212, -0.08932301141802212, -0.08932301141802212, -0.08932301141802212, -0.08932301141802212, -0.08932301141802212, -0.08932301141802212, -0.08932301141802212, -0.08932301141802212, -0.08932301141802212, -0.08932301141802212, -0.08932301141802212, -0.08932301141802212, -0.08932301141802212, -0.08932301141802212, -0.08932301141802212, -0.08932301141802212, -0.08932301141802212, -0.08932301141802212, -0.08932301141802212, -0.08932301141802212, -0.08932301141802212, -0.08932301141802212, -0.08932301141802212, -0.08932301141802212, -0.08932301141802212, -0.08932301141802212, -0.08932301141802212, -0.08932301141802212, -0.08932301141802212, -0.08932301141802212, -0.08932301141802212, -0.08932301141802212, -0.08932301141802212, -0.08932301141802212, -0.08932301141802212, -0.08932301141802212, -0.08932301141802212, -0.08932301141802212, -0.08932301141802212, -0.08932301141802212, -0.08932301141802212, -0.08932301141802212, -0.08932301141802212, -0.08932301141802212, -0.08932301141802212, -0.08932301141802212, -0.08932301141802212, -0.08932301141802212, -0.08932301141802212, -0.08932301141802212, -0.08932301141802212, -0.08932301141802212, -0.08932301141802212, -0.08932301141802212, -0.08932301141802212, -0.08932301141802212], "bias": -0.17915539449985554}, {"weights": [-0.08181522171283544, -0.08181522171283544, -0.08181522171283544, -0.08181522171283544, -0.08181522171283544, -0.08181522171283544, -0.08181522171283544, -0.08181522171283544, -0.08181522171283544, -0.08181522171283544, -0.08181522171283544, -0.08181522171283544, -0.08181522171283544, -0.08181522171283544, -0.08181522171283544, -0.08181522171283544, -0.08181522171283544, -0.08181522171283544, -0.08181522171283544, -0.08181522171283544, -0.08181522171283544, -0.08181522171283544, -0.08181522171283544, -0.08181522171283544, -0.08181522171283544, -0.08181522171283544, -0.08181522171283544, -0.08181522171283544, -0.08181522171283544, -0.08181522171283544, -0.08181522171283544, -0.08181522171283544, -0.08181522171283544, -0.08181522171283544, -0.08181522171283544, -0.08181522171283544, -0.08181522171283544, -0.08181522171283544, -0.08181522171283544, -0.08181522171283544, -0.08181522171283544, -0.08181522171283544, -0.08181522171283544, -0.08181522171283544, -0.08181522171283544, -0.08181522171283544, -0.08181522171283544, -0.08181522171283544, -0.08181522171283544, -0.08181522171283544, -0.08181522171283544, -0.08181522171283544, -0.08181522171283544, -0.08181522171283544, -0.08181522171283544, -0.08181522171283544, -0.08181522171283544, -0.08181522171283544, -0.08181522171283544, -0.08181522171283544, -0.08181522171283544, -0.08181522171283544, -0.08181522171283544, -0.08181522171283544, -0.08181522171283544, -0.08181522171283544, -0.08181522171283544, -0.08181522171283544, -0.08181522171283544, -0.08181522171283544, -0.08181522171283544, -0.08181522171283544, -0.08181522171283544, -0.08181522171283544, -0.08181522171283544, -0.08181522171283544, -0.08181522171283544, -0.08181522171283544, -0.08181522171283544, -0.08181522171283544, -0.08181522171283544], "bias": -0.4035510909540004}, {"weights": [-0.05944476303851354, -0.05944476303851354, -0.05944476303851354, -0.05944476303851354, -0.05944476303851354, -0.05944476303851354, -0.05944476303851354, -0.05944476303851354, -0.05944476303851354, -0.05944476303851354, -0.05944476303851354, -0.05944476303851354, -0.05944476303851354, -0.05944476303851354, -0.05944476303851354, -0.05944476303851354, -0.05944476303851354, -0.05944476303851354, -0.05944476303851354, -0.05944476303851354, -0.05944476303851354, -0.05944476303851354, -0.05944476303851354, -0.05944476303851354, -0.05944476303851354, -0.05944476303851354, -0.05944476303851354, -0.05944476303851354, -0.05944476303851354, -0.05944476303851354, -0.05944476303851354, -0.05944476303851354, -0.05944476303851354, -0.05944476303851354, -0.05944476303851354, -0.05944476303851354, -0.05944476303851354, -0.05944476303851354, -0.05944476303851354, -0.05944476303851354, -0.05944476303851354, -0.05944476303851354, -0.05944476303851354, -0.05944476303851354, -0.05944476303851354, -0.05944476303851354, -0.05944476303851354, -0.05944476303851354, -0.05944476303851354, -0.05944476303851354, -0.05944476303851354, -0.05944476303851354, -0.05944476303851354, -0.05944476303851354, -0.05944476303851354, -0.05944476303851354, -0.05944476303851354, -0.05944476303851354, -0.05944476303851354, -0.05944476303851354, -0.05944476303851354, -0.05944476303851354, -0.05944476303851354, -0.05944476303851354, -0.05944476303851354, -0.05944476303851354, -0.05944476303851354, -0.05944476303851354, -0.05944476303851354, -0.05944476303851354, -0.05944476303851354, -0.05944476303851354, -0.05944476303851354, -0.05944476303851354, -0.05944476303851354, -0.05944476303851354, -0.05944476303851354, -0.05944476303851354, -0.05944476303851354, -0.05944476303851354, -0.05944476303851354], "bias": -0.14333247027208618}, {"weights": [-0.05296169723468226, -0.05296169723468226, -0.05296169723468226, -0.05296169723468226, -0.05296169723468226, -0.05296169723468226, -0.05296169723468226, -0.05296169723468226, -0.05296169723468226, -0.05296169723468226, -0.05296169723468226, -0.05296169723468226, -0.05296169723468226, -0.05296169723468226, -0.05296169723468226, -0.05296169723468226, -0.05296169723468226, -0.05296169723468226, -0.05296169723468226, -0.05296169723468226, -0.05296169723468226, -0.05296169723468226, -0.05296169723468226, -0.05296169723468226, -0.05296169723468226, -0.05296169723468226, -0.05296169723468226, -0.05296169723468226, -0.05296169723468226, -0.05296169723468226, -0.05296169723468226, -0.05296169723468226, -0.05296169723468226, -0.05296169723468226, -0.05296169723468226, -0.05296169723468226, -0.05296169723468226, -0.05296169723468226, -0.05296169723468226, -0.05296169723468226, -0.05296169723468226, -0.05296169723468226, -0.05296169723468226, -0.05296169723468226, -0.05296169723468226, -0.05296169723468226, -0.05296169723468226, -0.05296169723468226, -0.05296169723468226, -0.05296169723468226, -0.05296169723468226, -0.05296169723468226, -0.05296169723468226, -0.05296169723468226, -0.05296169723468226, -0.05296169723468226, -0.05296169723468226, -0.05296169723468226, -0.05296169723468226, -0.05296169723468226, -0.05296169723468226, -0.05296169723468226, -0.05296169723468226, -0.05296169723468226, -0.05296169723468226, -0.05296169723468226, -0.05296169723468226, -0.05296169723468226, -0.05296169723468226, -0.05296169723468226, -0.05296169723468226, -0.05296169723468226, -0.05296169723468226, -0.05296169723468226, -0.05296169723468226, -0.05296169723468226, -0.05296169723468226, -0.05296169723468226, -0.05296169723468226, -0.05296169723468226, -0.05296169723468226], "bias": -0.2770172342899834}]}